tree
version=v3
num_class=5
num_tree_per_iteration=5
label_index=0
max_feature_idx=11
objective=multiclass num_class:5
feature_names=HISPORX SEX DIABETES HYPERTEN HYPERCHO TOBAC30 ALCOHOL NACCMMSE CDRGLOB CVHATT NACCALZD CANCER
feature_infos=[0:27] [1:2] [0:1] [0:1] [0:1] [-4:9] [0:1] [-4:98] [0:3] [0:1] [0:2] [0:1]
tree_sizes=227 548 3345 3358 3366 209 3578 3392 3411 3437 210 3560 3398 3403 3446 210 3537 3380 3407 3442 210 3544 3405 3402 3440 210 3542 3409 3413 3434 210 3535 3408 3415 3436 210 3546 3399 3409 3451 210 3537 3411 3424 3429 210 3538 3412 3426 3456 210 3540 3424 3421 3442 210 3536 3419 3427 3448 210 3537 3422 3431 3446 210 3535 3411 3437 3440 210 3542 3429 3430 3447 210 3538 3437 3433 3449 210 3538 3428 3439 3447 210 3540 3438 3438 3453 210 3535 3414 3430 3450 210 3535 3425 3449 3454 211 3532 3424 3447 3446 211 3527 3425 3436 3451 211 3536 3430 3431 3455 211 3537 3432 3433 3454 211 3532 3434 3434 3447 211 3540 3427 3436 3449 211 3525 3440 3442 3454 211 3520 3428 3437 3451 211 3521 3442 3436 3458 211 3520 3416 3446 3450 211 3526 3433 3447 3454 211 3539 3427 3435 3449 211 3540 3423 3452 3450 211 3532 3419 3460 3472 211 3537 3428 3445 3463 211 3532 3426 3464 3464 211 3536 3419 3456 3449 211 3528 3441 3457 3461 211 3533 3416 3444 3464 211 3534 3423 3445 3460 211 3537 3427 3457 3465 211 3544 3428 3454 3469 211 3539 3437 3461 3466 211 3545 3439 3441 3468 211 3544 3434 3444 3457 211 3541 3424 3462 3464 211 3530 3447 3451 3441 211 3538 3430 3452 3478 211 3537 3436 3445 3462 211 3532 3443 3461 3466 211 3529 3432 3442 3461 211 3537 3445 3440 3453 211 3533 3433 3460 3466 211 3538 3442 3454 3464 211 3534 3431 3448 3469 211 3540 3435 3462 3473 211 3532 3435 3457 3463 211 3538 3435 3465 3472 211 3535 3444 3446 3455 211 3541 3445 3468 3462 211 3542 3425 3458 3469 211 3534 3450 3474 3454 211 3529 3452 3449 3459 211 3545 3440 3475 3476 211 3538 3457 3446 3455 211 3551 3445 3435 3469 211 3544 3443 3458 3467 211 3549 3447 3460 3470 211 3549 3464 3449 3461 211 3550 3436 3470 3464 211 3558 3447 3441 3460 211 3548 3454 3460 3478 211 3552 3433 3452 3466 211 3553 3444 3476 3483 211 3552 3438 3444 3455 211 3564 3433 3468 3471 211 3558 3450 3452 3470 211 3557 3443 3456 3475 211 3561 3451 3444 3466 211 3560 3423 3462 3474 211 3554 3443 3454 3465 211 3560 3414 3469 3466 211 3564 3419 3453 3469 211 3565 3424 3445 3474 211 3558 3413 3467 3476 211 3565 3449 3467 3471 211 3558 3443 3444 3465 211 3565 3428 3433 3478 211 3560 3451 3447 3469 211 3552 3439 3441 3482 211 3574 3451 3452 3460 211 3557 3438 3441 3471 211 3567 3452 3448 3466 211 3567 3452 3439 3462 211 3563 3455 3449 3467 211 3574 3453 3449 3481 211 3568 3449 3441 3475 211 3575 3447 3445 3477 211 3579 3463 3445 3461 211 3564 3442 3452 3484 211 3567 3454 3444 3487 211 3560 3456 3423 3476 211 3564 3451 3442 3465 211 3571 3464 3439 3472 211 3569 3455 3459 3460 211 3572 3450 3447 3496 211 3559 3452 3456 3468 211 3571 3487 3439 3464 211 3574 3448 3445 3490 211 3562 3458 3452 3458 211 3570 3457 3453 3476 211 3559 3451 3446 3485 211 3557 3473 3426 3486 211 3558 3461 3421 3468 211 3555 3434 3431 3473 211 3565 3438 3431 3482 211 3557 3429 3427 3476 211 3557 3452 3438 3476

Tree=0
num_leaves=1
num_cat=0
split_feature=
split_gain=
threshold=
decision_type=
left_child=
right_child=
leaf_value=-34.538776391283193
leaf_weight=
leaf_count=
internal_value=
internal_weight=
internal_count=
shrinkage=1


Tree=1
num_leaves=4
num_cat=0
split_feature=10 0 7
split_gain=45411.5 3.63798e-12 3.63798e-12
threshold=1.5000000000000002 11.500000000000002 96.500000000000014
decision_type=2 2 2
left_child=1 -1 -2
right_child=2 -3 -4
leaf_value=-0.83627809706279654 -0.77554848779793073 -0.83627809706279654 -0.77554848779793073
leaf_weight=24876.991195291281 19555.699089497328 14.819788634777067 418.41203245520592
leaf_count=50359 39587 30 847
internal_value=0 -0.901218 1.1231
internal_weight=0 24891.8 19974.1
internal_count=90823 50389 40434
shrinkage=1


Tree=2
num_leaves=31
num_cat=0
split_feature=10 8 8 10 8 7 7 11 8 2 8 7 5 11 7 7 7 7 7 7 11 7 6 5 6 3 3 7 1 7
split_gain=4528.41 1996.08 902.624 251.337 687.974 440.741 227.649 221.747 191.722 118.779 90.4904 88.2577 85.0287 82.2331 79.4833 64.8936 66.5297 60.1261 57.5287 40.4154 36.0521 34.8284 32.0686 31.4573 28.5543 26.2877 23.8016 21.5843 19.9208 18.91
threshold=1.0000000180025095e-35 0.75000000000000011 1.0000000180025095e-35 1.5000000000000002 1.0000000180025095e-35 27.500000000000004 28.500000000000004 1.0000000180025095e-35 0.75000000000000011 1.0000000180025095e-35 0.75000000000000011 28.500000000000004 -1.0000000180025095e-35 1.0000000180025095e-35 1.5000000000000002 59.000000000000007 29.500000000000004 59.000000000000007 29.500000000000004 24.500000000000004 1.0000000180025095e-35 -1.0000000180025095e-35 1.0000000180025095e-35 -1.0000000180025095e-35 1.0000000180025095e-35 1.0000000180025095e-35 1.0000000180025095e-35 26.500000000000004 1.5000000000000002 23.500000000000004
decision_type=2 2 2 2 2 2 2 2 2 2 2 2 2 2 2 2 2 2 2 2 2 2 2 2 2 2 2 2 2 2
left_child=1 2 7 4 -2 10 9 12 11 13 14 -7 -1 19 -6 16 -13 18 -8 21 -20 -4 27 -11 -9 -21 -24 -15 -27 -14
right_child=3 -3 6 -5 5 8 17 24 -10 23 -12 15 29 22 -16 -17 -18 -19 20 25 -22 -23 26 -25 -26 28 -28 -29 -30 -31
leaf_value=-2.8809097577552314 -2.9740908079391177 -3.0811764156656034 -3.0276361194040153 -3.088366461824207 -3.0597515508876953 -3.0621728996185826 -3.0009410033539634 -2.8948345031950127 -3.0871064085863993 -2.9873073763906066 -3.08812405131878 -3.0424596573765115 -2.9981964298781776 -3.0281502454215774 -3.0811424245480148 -3.0867715775382307 -3.010316812079243 -3.0518153479031938 -2.9798137223721897 -3.0441349101163211 -2.9354232726339622 -3.0646155261332595 -3.0230375478024865 -3.0145846384096573 -2.8371520831995061 -3.0349186996325699 -2.9067971352672868 -2.9882967454622533 -3.011114544835257 -2.961826116129612
leaf_weight=11.568678751587866 57.755083233118057 388.03644606471062 31.615167886018753 3570.7477606236935 204.43886496126652 148.8915448486805 132.11254513263702 29.142473191022873 119.04258745908737 63.230335772037506 1608.8411411941051 137.23455557227135 14.30630502104759 26.404846921563148 664.4483887553215 18.810141786932945 100.32075619697571 13.953062921762465 85.396277502179146 99.702582523226738 20.399731233716011 83.365135431289673 2.2960736453533164 95.551987856626511 10.508952453732489 66.232893615961075 5.1220104396343231 22.78411540389061 60.581020027399063 127.78532941639423
leaf_count=131 654 4394 358 40434 2315 1686 1496 330 1348 716 18218 1554 162 299 7524 213 1136 158 967 1129 231 944 26 1082 119 750 58 258 686 1447
internal_value=0 1.64104 2.38673 -0.344046 -0.133723 -0.199493 1.92272 4.32799 0.633462 1.56592 -0.37575 0.961204 3.78393 1.27425 -0.115705 1.31685 1.45842 2.71163 2.82996 1.08921 3.37947 0.606355 2.39056 2.2972 6.43638 1.33431 4.32873 2.09827 1.63637 3.57168
internal_weight=0 1390.1 1002.06 6630.53 3059.78 3002.03 808.748 193.312 524.3 556.886 2477.73 405.257 153.66 398.104 868.887 256.365 237.555 251.862 237.909 341.497 105.796 114.98 56.607 158.782 39.6514 226.516 7.41808 49.189 126.814 142.092
internal_count=90823 15741 11347 75082 34648 33994 9158 2189 5937 6306 28057 4589 1740 4508 9839 2903 2690 2852 2694 3867 1198 1302 641 1798 449 2565 84 557 1436 1609
shrinkage=1


Tree=3
num_leaves=31
num_cat=0
split_feature=10 8 7 7 10 7 10 7 7 8 11 10 7 7 7 9 8 7 2 2 8 7 10 8 7 11 5 3 6 10
split_gain=7550 14024.1 608.994 369.098 206.197 89.8905 59.9225 58.0293 49.4606 56.1194 39.1704 29.934 25.0748 20.9553 20.4865 16.7607 30.8984 16.5124 16.0154 13.1345 12.3398 10.3626 9.99597 10.2489 9.21709 8.39955 8.07458 7.94692 9.7301 7.82729
threshold=1.5000000000000002 0.75000000000000011 24.500000000000004 1.5000000000000002 1.0000000180025095e-35 22.500000000000004 1.0000000180025095e-35 16.500000000000004 26.500000000000004 1.0000000180025095e-35 1.0000000180025095e-35 1.0000000180025095e-35 18.500000000000004 22.500000000000004 23.500000000000004 1.0000000180025095e-35 1.0000000180025095e-35 29.500000000000004 1.0000000180025095e-35 1.0000000180025095e-35 1.0000000180025095e-35 27.500000000000004 1.0000000180025095e-35 1.5000000000000002 25.500000000000004 1.0000000180025095e-35 1.0000000180025095e-35 1.0000000180025095e-35 1.0000000180025095e-35 1.0000000180025095e-35
decision_type=2 2 2 2 2 2 2 2 2 2 2 2 2 2 2 2 2 2 2 2 2 2 2 2 2 2 2 2 2 2
left_child=1 2 3 6 7 12 15 -5 11 10 -10 20 -6 19 -3 -1 -17 21 24 -9 -4 26 23 -16 -13 -18 -11 28 -14 -23
right_child=-2 14 8 4 5 -7 -8 13 9 17 -12 18 27 -15 22 16 25 -19 -20 -21 -22 29 -24 -25 -26 -27 -28 -29 -30 -31
leaf_value=-1.7209437139396144 -1.7805190311449857 -1.7798919507366069 -1.7261180715355768 -1.7598940147881716 -1.7717269568646772 -1.7402237895036681 -1.7134732051441302 -1.7340672288583909 -1.7169587673234383 -1.7115020983418832 -1.7375465332580846 -1.7286089398852 -1.7618339072719864 -1.7148532263639316 -1.7687962654379077 -1.7532919624059657 -1.7308696705032436 -1.7142518184178397 -1.7129959006722164 -1.7146669848575744 -1.7108811447923435 -1.7100955402982647 -1.7774212026012743 -1.7794586804780137 -1.721218642030597 -1.7158547428898134 -1.7272735719520893 -1.7513959745577654 -1.7320438107886902 -1.7060469056669652
leaf_weight=180.27599656581879 11497.286506533623 5406.0051209926605 54.594623565673828 37.818150699138641 102.36491918563843 472.01601624488831 698.92492043972015 121.41616803407669 466.32907629013062 735.03698915243149 101.22753119468689 284.91569173336029 158.94997173547745 218.37849426269531 286.6217737197876 52.888541579246521 140.18306988477707 769.15862888097763 127.95614898204803 42.367702662944794 386.42756992578506 805.55504459142685 1007.157065987587 113.17010509967804 325.29296541213989 44.073784649372101 30.425128757953644 226.62455719709396 10.520838916301726 921.28427267074585
leaf_count=634 40434 19012 192 133 360 1660 2458 427 1640 2585 356 1002 559 768 1008 186 493 2705 450 149 1359 2833 3542 398 1144 155 107 797 37 3240
internal_value=0 0.484347 1.42634 1.02398 0.680155 0.426826 1.45222 1.26554 1.62774 1.68289 1.39268 1.44867 0.130666 1.38247 -0.554718 1.15242 0.977713 1.73339 1.32551 1.11208 1.65479 1.77292 -0.447229 -0.313444 1.25806 1.1711 1.67607 0.244685 0.0808883 1.81585
internal_weight=0 14328 7515.01 2506.8 1390.46 970.476 1116.35 419.981 5008.2 3829.02 567.557 1179.19 498.46 382.162 6812.95 417.421 237.145 3261.46 738.165 163.784 441.022 2492.3 1406.95 399.792 610.209 184.257 765.462 396.095 169.471 1726.84
internal_count=90823 50389 26429 8816 4890 3413 3926 1477 17613 13466 1996 4147 1753 1344 23960 1468 834 11470 2596 576 1551 8765 4948 1406 2146 648 2692 1393 596 6073
shrinkage=1


Tree=4
num_leaves=31
num_cat=0
split_feature=8 10 7 10 7 7 10 7 7 10 11 7 2 7 10 7 8 7 7 7 7 7 8 8 8 8 2 6 7 8
split_gain=30222.7 2566.63 959.152 434.374 369.49 242.451 109.825 62.0677 59.2286 45.2374 41.8261 32.1066 46.47 20.8644 18.6527 17.18 16.5839 16.4666 18.5219 16.2137 44.0674 24.98 14.9721 14.8138 13.603 11.7998 10.2797 10.0013 9.54757 7.52591
threshold=0.75000000000000011 1.5000000000000002 26.500000000000004 1.0000000180025095e-35 1.5000000000000002 24.500000000000004 1.0000000180025095e-35 22.500000000000004 27.500000000000004 1.5000000000000002 1.0000000180025095e-35 24.500000000000004 1.0000000180025095e-35 23.500000000000004 1.0000000180025095e-35 18.500000000000004 1.0000000180025095e-35 28.500000000000004 95.500000000000014 22.500000000000004 1.5000000000000002 18.500000000000004 1.5000000000000002 1.0000000180025095e-35 1.0000000180025095e-35 1.0000000180025095e-35 1.0000000180025095e-35 1.0000000180025095e-35 91.500000000000014 1.0000000180025095e-35
decision_type=2 2 2 2 2 2 2 2 2 2 2 2 2 2 2 2 2 2 2 2 2 2 2 2 2 2 2 2 2 2
left_child=1 2 3 10 27 7 24 15 23 13 11 12 19 -2 22 -6 -7 29 -19 20 -1 -22 -15 -8 -4 -9 -18 -5 -26 -10
right_child=9 -3 6 4 5 16 8 25 17 -11 -12 -13 -14 14 -16 -17 26 18 -20 -21 21 -23 -24 -25 28 -27 -28 -29 -30 -31
leaf_value=-1.0916457580490539 -1.0440850001720843 -1.1106634469135821 -1.1087048132728541 -1.0892599102915259 -1.0494850047355384 -1.1052483605681613 -1.1097177135236775 -1.1003331283469331 -1.1075257333302542 -1.1106634469135821 -1.1050602029851604 -1.0989265620904838 -1.0978244875907173 -1.0546409405201427 -1.0456206463731745 -1.0604839059363884 -1.0804504656338116 -1.1021966844703384 -1.0869644807900931 -1.0916099728449584 -1.0573789972746408 -1.0792329031895223 -1.0443599323947255 -1.0887685713454387 -1.1042872303539799 -1.0698574241544412 -1.0880244116144235 -1.0950631477765431 -1.0930158193622233 -1.0952506851375408
leaf_weight=205.07223710417747 8494.1903525590897 18055.739255100489 704.57280591130257 459.73710671067238 160.84097027778625 27.700389325618744 31.7214135825634 11.616292297840117 47.805510610342026 9.3823899328708631 326.59652575850487 595.55837050080299 436.95130258798599 450.35471677780151 1582.4964353442192 622.36519888043404 937.34543234109879 1328.725126683712 75.95268040895462 228.30482169985771 69.25097331404686 146.99077561497688 177.81862825155258 717.97622010111809 2286.6224607825279 730.03929287195206 194.79628622531891 638.44929590821266 69.69775378704071 753.27187746763229
leaf_count=459 19012 40413 1577 1029 360 62 71 26 107 21 731 1333 978 1008 3542 1393 2098 2974 170 511 155 329 398 1607 5118 1634 436 1429 156 1686
internal_value=0 -0.516929 -0.15441 0.136074 0.335637 0.535522 -0.434044 0.79761 -0.296546 1.44083 -0.239749 -0.176166 -0.0738839 1.44275 1.35621 0.993938 0.190951 -0.379077 -0.444326 0.0957234 0.21202 0.526968 1.21042 -0.0537234 -0.566805 0.590284 0.209655 -0.153015 -0.530352 -0.264665
internal_weight=0 29863.7 11808 5791.62 3782.89 2684.7 6016.35 1524.86 2955.45 10714.2 2008.73 1682.13 1086.57 10704.9 2210.67 783.206 1159.84 2205.76 1404.68 649.619 421.314 216.242 628.173 749.698 3060.89 741.656 1132.14 1098.19 2356.32 801.077
internal_count=90823 66842 26429 12963 8467 6009 13466 3413 6615 23981 4496 3765 2432 23960 4948 1753 2596 4937 3144 1454 943 484 1406 1678 6851 1660 2534 2458 5274 1793
shrinkage=1


Tree=5
num_leaves=1
num_cat=0
split_feature=
split_gain=
threshold=
decision_type=
left_child=
right_child=
leaf_value=0
leaf_weight=
leaf_count=
internal_value=
internal_weight=
internal_count=
shrinkage=1


Tree=6
num_leaves=31
num_cat=0
split_feature=10 8 7 10 5 7 11 8 10 7 7 11 8 8 7 8 6 7 5 7 2 7 7 3 8 8 7 10 8 7
split_gain=43208.1 0.0376933 0.00292012 0.00137189 0.00120797 0.00046008 0.000424077 0.000448495 0.000284783 0.00057474 0.000551868 0.000285224 0.000258314 0.000243372 0.000213796 0.000243726 0.00019657 0.000192413 0.000174878 0.000173897 0.000178966 0.000168619 0.000154964 0.000157804 0.000154777 0.000150645 0.000146167 0.000177793 0.000206092 0.000127984
threshold=1.5000000000000002 0.75000000000000011 26.500000000000004 1.0000000180025095e-35 -1.0000000180025095e-35 24.500000000000004 1.0000000180025095e-35 1.0000000180025095e-35 1.0000000180025095e-35 28.500000000000004 28.500000000000004 1.0000000180025095e-35 1.0000000180025095e-35 1.0000000180025095e-35 1.5000000000000002 1.0000000180025095e-35 1.0000000180025095e-35 14.500000000000002 -1.0000000180025095e-35 22.500000000000004 1.0000000180025095e-35 25.500000000000004 22.500000000000004 1.0000000180025095e-35 1.0000000180025095e-35 1.0000000180025095e-35 23.500000000000004 1.0000000180025095e-35 1.5000000000000002 22.500000000000004
decision_type=2 2 2 2 2 2 2 2 2 2 2 2 2 2 2 2 2 2 2 2 2 2 2 2 2 2 2 2 2 2
left_child=1 2 3 6 12 14 18 -8 10 13 11 -4 -5 -10 15 -6 29 -14 -1 20 -20 -7 23 -16 -24 -12 -3 28 -28 -9
right_child=-2 26 8 4 5 21 7 16 9 -11 25 -13 17 -15 22 -17 -18 -19 19 -21 -22 -23 24 -25 -26 -27 27 -29 -30 -31
leaf_value=-0.026572665918851358 0.032704397835305918 -0.026477518910522597 -0.02659303460288754 -0.026486776974580521 -0.026450329895192377 -0.026547601307949517 -0.026518268410039323 -0.026653646393359778 -0.026597680386765563 -0.026574214820495001 -0.026577024231044064 -0.026557670184240191 -0.026572560650184155 -0.026546325426373297 -0.026513777294900842 -0.026534626710996587 -0.026570651939256146 -0.026515697940294895 -0.026526790768120576 -0.026555747069577692 -0.026569806110347538 -0.026525468026681383 -0.026620588397259049 -0.026487608015422149 -0.026515384208082034 -0.026557675329610373 -0.026508950157061215 -0.026480665395219965 -0.02647257103958206 -0.026602741622136633
leaf_weight=311.23450261354446 20078.75567561388 9337.7552762031555 1231.9412770867348 37.331444621086121 32.896655946969986 580.02192482352257 67.810410350561142 71.849113792181015 87.54357585310936 1545.874322026968 488.26380974054337 246.29098188877106 637.21928358078003 1618.6311779618263 359.18039146065712 500.80991888046265 103.25065502524376 58.472367525100708 463.41533023118973 968.92143458127975 107.1828481554985 664.8923731148243 12.790497124195097 490.71667942404747 786.67467412352562 1402.0417514145374 495.25907564163208 1739.7189159989357 195.4667249917984 116.56745994091034
leaf_count=633 40434 19012 2505 76 67 1180 138 146 178 3144 993 501 1296 3293 731 1019 210 119 943 1971 218 1353 26 999 1601 2852 1008 3542 398 237
internal_value=0 -0.883937 -0.885112 -0.884628 -0.88429 -0.884041 -0.885265 -0.886259 -0.885577 -0.885366 -0.88578 -0.886238 -0.885455 -0.884965 -0.883764 -0.884314 -0.886797 -0.885593 -0.885072 -0.884934 -0.884496 -0.884526 -0.883586 -0.883289 -0.883902 -0.885422 -0.882641 -0.882859 -0.883289 -0.887405
internal_weight=0 24760 12991.8 6371.24 4161.01 3427.98 2210.23 359.478 6620.59 3252.05 3368.54 1478.23 733.023 1706.17 2183.07 533.707 291.667 695.692 1850.75 1539.52 570.598 1244.91 1649.36 849.897 799.465 1890.31 11768.2 2430.44 690.726 188.417
internal_count=90823 50389 26429 12963 8467 6976 4496 731 13466 6615 6851 3006 1491 3471 4443 1086 593 1415 3765 3132 1161 2533 3357 1730 1627 3845 23960 4948 1406 383
shrinkage=0.03


Tree=7
num_leaves=31
num_cat=0
split_feature=10 8 8 10 8 7 7 8 11 2 8 7 7 11 7 7 6 7 7 7 7 7 11 5 1 1 1 11 9 6
split_gain=4196.91 1719.17 673.288 249.256 609.516 424.011 183.632 178.428 138.107 98.5786 89.8632 78.5237 76.512 68.7021 58.5495 56.1788 55.5307 48.3684 43.2336 35.3563 31.3608 25.8584 25.3855 24.5751 22.998 19.4781 17.3446 19.0165 17.1466 16.5471
threshold=1.0000000180025095e-35 0.75000000000000011 1.0000000180025095e-35 1.5000000000000002 1.0000000180025095e-35 27.500000000000004 28.500000000000004 0.75000000000000011 1.0000000180025095e-35 1.0000000180025095e-35 0.75000000000000011 28.500000000000004 1.5000000000000002 1.0000000180025095e-35 59.000000000000007 29.500000000000004 1.0000000180025095e-35 59.000000000000007 29.500000000000004 24.500000000000004 -1.0000000180025095e-35 26.500000000000004 1.0000000180025095e-35 -1.0000000180025095e-35 1.5000000000000002 1.5000000000000002 1.5000000000000002 1.0000000180025095e-35 1.0000000180025095e-35 1.0000000180025095e-35
decision_type=2 2 2 2 2 2 2 2 2 2 2 2 2 2 2 2 2 2 2 2 2 2 2 2 2 2 2 2 2 2
left_child=1 2 8 4 -2 10 9 11 16 13 12 -7 -6 19 15 -13 -1 18 26 20 -4 -15 -20 -11 -21 -10 27 -8 -28 -23
right_child=3 -3 6 -5 5 7 17 -9 25 23 -12 14 -14 21 -16 -17 -18 -19 22 24 -22 29 -24 -25 -26 -27 28 -29 -30 -31
leaf_value=0.093093025997638398 0.087868599720394527 -0.0084770085502007004 0.042215626352180943 -0.015713361458908101 0.012411774053164164 0.010099798141875694 0.047911643576270438 -0.014440693527601274 0.1798369497204402 0.076934441678957841 -0.015470892660614284 0.028630654034236903 -0.0084594219953893872 0.046660532369418729 -0.014112296851955818 0.057421679689204391 0.14377901892022438 0.019945553109948905 0.083185244780219145 0.028921502753364647 0.0077586419925763147 0.076203752347077158 0.11819215896540686 0.053717862192183413 0.047677596387482001 0.14103571544785409 0.072052986962887602 0.087991910611062152 0.13003648985855309 0.13899740298404525
leaf_weight=149.56981115788221 63.657586209475994 385.08804972469807 33.113695099949837 3504.6113543361425 207.79197006672621 150.93450093269348 58.869095742702484 117.47025573253632 20.077897094190121 68.905759081244469 1585.960583999753 141.93524779379368 660.76311431080103 31.711771324276924 18.646124370396137 106.9622790813446 22.362088926136494 14.288479790091513 93.644173517823219 126.90081834048033 84.271190844476223 24.781809747219089 23.277456164360046 101.44486881047487 109.69649355858564 27.719254955649376 65.230756089091301 13.008171156048773 4.9374080300331107 4.4560108184814444
leaf_count=1523 654 4394 358 40434 2315 1686 620 1348 188 716 18218 1554 7524 339 213 1136 217 158 967 1384 944 258 231 1082 1181 261 687 137 52 44
internal_value=0 1.53114 2.17889 -0.341794 -0.132965 -0.198144 1.77913 0.607681 3.74086 1.46312 -0.374097 0.913383 -0.115541 1.20016 1.23874 1.36678 3.32285 2.45597 2.5548 1.03131 0.582626 2.18078 3.00515 2.10363 1.25392 5.24449 2.1841 1.83884 2.53777 2.85913
internal_weight=0 1463.36 1078.27 6558.73 3054.12 2990.46 858.538 535.948 219.729 585.282 2454.52 418.478 868.555 414.932 267.544 248.898 171.932 273.256 258.967 353.982 117.385 60.9496 116.922 170.351 236.597 47.7972 142.045 71.8773 70.1682 29.2378
internal_count=90823 15741 11347 75082 34648 33994 9158 5937 2189 6306 28057 4589 9839 4508 2903 2690 1740 2852 2694 3867 1302 641 1198 1798 2565 449 1496 757 739 302
shrinkage=0.03


Tree=8
num_leaves=31
num_cat=0
split_feature=10 8 7 7 10 7 10 7 7 8 11 10 7 7 7 9 8 7 2 2 8 8 10 7 7 3 6 9 11 5
split_gain=7251.16 13018.6 526.88 326.727 186.12 83.627 52.2658 52.0262 41.5995 48.2848 34.3986 25.5197 24.0625 20.4891 18.1885 14.9327 27.8366 13.9432 13.8502 11.5421 10.5234 9.96283 13.2721 8.71238 8.23647 7.58861 9.21334 7.54899 7.37062 7.08724
threshold=1.5000000000000002 0.75000000000000011 24.500000000000004 1.5000000000000002 1.0000000180025095e-35 22.500000000000004 1.0000000180025095e-35 16.500000000000004 26.500000000000004 1.0000000180025095e-35 1.0000000180025095e-35 1.0000000180025095e-35 18.500000000000004 23.500000000000004 22.500000000000004 1.0000000180025095e-35 1.0000000180025095e-35 29.500000000000004 1.0000000180025095e-35 1.0000000180025095e-35 1.0000000180025095e-35 1.5000000000000002 1.0000000180025095e-35 27.500000000000004 25.500000000000004 1.0000000180025095e-35 1.0000000180025095e-35 1.0000000180025095e-35 1.0000000180025095e-35 1.0000000180025095e-35
decision_type=2 2 2 2 2 2 2 2 2 2 2 2 2 2 2 2 2 2 2 2 2 2 2 2 2 2 2 2 2 2
left_child=1 2 3 6 7 12 15 -5 11 10 -10 20 -6 -3 19 -1 -17 23 24 -9 -4 22 -15 29 -13 26 -14 -26 -18 -11
right_child=-2 13 8 4 5 -7 -8 14 9 17 -12 18 25 21 -16 16 28 -19 -20 -21 -22 -23 -24 -25 27 -27 -28 -29 -30 -31
leaf_value=0.039197181899551035 -0.018026522306339263 -0.017408777306139076 0.034467772537702411 0.0024279036129893866 -0.0092222585867606562 0.021321542842732449 0.046000565840444908 0.027059807476281294 0.042774624919408623 0.047752465552069495 0.023737047247078036 0.032139259943292572 0.00051555873343944302 -0.0063268039412520197 0.04473256026527761 0.0087919037662698742 0.029967606690184275 0.045265508061649203 0.046453268445136392 0.044915347902439846 0.048309708027046226 -0.017632775125454518 -0.013927708384099263 0.050941637412800958 0.03774213540163248 0.010695730700578715 0.029203452094467518 0.054870120096236291 0.043767862407198266 0.033224313377939602
leaf_weight=186.84345456957817 11297.646051228046 5332.9804468154907 56.326154202222824 37.951466083526611 101.65918511152267 481.23925423622131 728.60574528574944 124.52832010388374 485.2695135474205 767.7447210252285 103.66845455765724 293.49746161699295 159.36953741312027 285.60837936401367 227.46607905626297 53.434437364339828 144.3431636095047 801.68407809734344 133.39983862638474 44.12822100520134 403.83216106891632 358.45406547188759 748.83737203478813 1809.1371430754662 311.67776829004288 228.77876821160316 10.755360364913939 25.017895638942719 45.910055041313171 31.458600282669067
leaf_count=634 40434 19012 192 133 360 1660 2458 427 1640 2585 356 1002 559 1008 768 186 493 2705 450 149 1359 1276 2664 6073 1059 797 37 85 155 107
internal_value=0 0.467337 1.34663 0.976439 0.654141 0.413065 1.37012 1.19941 1.52915 1.57853 1.31412 1.36782 0.126903 -0.552085 1.30657 1.09388 0.930808 1.62419 1.25572 1.05772 1.55385 -0.444088 -0.394304 1.65964 1.19376 0.237586 0.0776406 1.30049 1.10993 1.57269
internal_weight=0 14523.6 7797.73 2575.01 1415.88 981.802 1159.14 434.074 5222.71 3998.96 588.938 1223.75 500.563 6725.88 396.123 430.531 243.688 3410.02 763.593 168.657 460.158 1392.9 1034.45 2608.34 630.193 398.904 170.125 336.696 190.253 799.203
internal_count=90823 50389 26429 8816 4890 3413 3926 1477 17613 13466 1996 4147 1753 23960 1344 1468 834 11470 2596 576 1551 4948 3672 8765 2146 1393 596 1144 648 2692
shrinkage=0.03


Tree=9
num_leaves=31
num_cat=0
split_feature=8 10 7 10 7 7 10 7 7 10 11 7 2 7 10 7 7 8 7 7 7 7 8 8 8 8 8 2 6 7
split_gain=28454 2471.52 923.61 414.414 350.015 227.209 107.012 57.5026 57.2957 41.7398 40.6741 30.9436 44.7482 18.942 17.0219 16.0734 17.964 15.9277 15.7608 15.5093 41.7953 23.4956 14.3736 13.7297 13.34 11.222 9.77611 9.76621 9.73488 9.29754
threshold=0.75000000000000011 1.5000000000000002 26.500000000000004 1.0000000180025095e-35 1.5000000000000002 24.500000000000004 1.0000000180025095e-35 22.500000000000004 27.500000000000004 1.5000000000000002 1.0000000180025095e-35 24.500000000000004 1.0000000180025095e-35 23.500000000000004 1.0000000180025095e-35 28.500000000000004 95.500000000000014 1.0000000180025095e-35 18.500000000000004 22.500000000000004 1.5000000000000002 18.500000000000004 1.0000000180025095e-35 1.5000000000000002 1.0000000180025095e-35 1.0000000180025095e-35 1.0000000180025095e-35 1.0000000180025095e-35 1.0000000180025095e-35 91.500000000000014
decision_type=2 2 2 2 2 2 2 2 2 2 2 2 2 2 2 2 2 2 2 2 2 2 2 2 2 2 2 2 2 2
left_child=1 2 3 10 26 7 24 18 22 13 11 12 19 -2 23 -10 -17 -7 -6 20 -1 -22 -8 -15 -4 -9 -5 -19 -28 -26
right_child=9 -3 6 4 5 17 8 25 15 -11 -12 -13 -14 14 -16 16 -18 27 -20 -21 21 -23 -24 -25 29 -27 28 -29 -30 -31
leaf_value=-0.0035997516062530673 0.042039322583902715 -0.022323253476917063 -0.0204721667277327 -0.015980014113407284 0.036958661710967969 -0.017042444551186083 -0.021498547018775457 -0.012208490722442088 -0.0078660959030879274 -0.022323253476917063 -0.016857831871028052 -0.010769774933341292 -0.0096939486150227887 0.032043269838895154 0.040593176814992624 -0.014013944207086041 0.00097305688001992166 0.0073112313125159797 0.026516676033800615 -0.003576912594247928 0.029550019955983935 0.0084787637696001165 -0.00079017051108455486 0.041792037303705926 -0.016081241505008614 0.017544833367977831 -0.00044164457912841741 -6.2423786248995701e-05 -0.0063427020250570497 -0.004955197504642554
leaf_weight=205.0589614212513 8674.7514760494232 17816.86914986372 699.19040781259537 63.747171431779861 163.87091645598412 27.541705310344696 31.486806601285934 11.588111400604246 799.51475614309311 9.2582647204399091 324.77775537967682 593.62102624773979 435.89323619008064 458.02534961700439 1615.1163546442986 1322.8501788377762 76.122905820608139 942.25074970722198 631.14129370450974 228.35964396595955 70.252804100513458 147.87616223096848 719.00378865003586 181.55547916889191 2273.953073233366 737.29207718372345 432.43260186910629 195.13988161087036 601.67157554626465 69.668254852294922
leaf_count=459 19012 40413 1577 143 360 62 71 26 1793 21 731 1333 978 1008 3542 2974 170 2098 1393 511 155 329 1607 398 5118 1634 967 436 1348 156
internal_value=0 -0.508991 -0.154115 0.129887 0.323712 0.516754 -0.429619 0.768327 -0.293869 1.37829 -0.237954 -0.175363 -0.0751223 1.38009 1.29843 -0.375309 -0.439948 0.183343 0.955634 0.0907989 0.204134 0.508839 -0.0552997 1.16035 -0.561182 0.569481 -0.152598 0.201538 -0.129168 -0.525017
internal_weight=0 29621.2 11804.3 5812.52 3806.68 2708.82 5991.79 1543.89 2948.98 10938.7 2005.84 1681.06 1087.44 10929.4 2254.7 2198.49 1398.97 1164.93 795.012 651.548 423.188 218.129 750.491 639.581 3042.81 748.88 1097.85 1137.39 1034.1 2343.62
internal_count=90823 66842 26429 12963 8467 6009 13466 3413 6615 23981 4496 3765 2432 23960 4948 4937 3144 2596 1753 1454 943 484 1678 1406 6851 1660 2458 2534 2315 5274
shrinkage=0.03


Tree=10
num_leaves=1
num_cat=0
split_feature=
split_gain=
threshold=
decision_type=
left_child=
right_child=
leaf_value=0
leaf_weight=
leaf_count=
internal_value=
internal_weight=
internal_count=
shrinkage=1


Tree=11
num_leaves=31
num_cat=0
split_feature=10 8 7 10 5 11 7 8 7 5 7 7 2 7 11 10 7 7 7 7 7 10 8 7 3 8 6 7 8 8
split_gain=41156.4 0.137232 0.00986599 0.00480294 0.00409554 0.00169026 0.00162655 0.00127362 0.000781155 0.000765841 0.000707795 0.00102391 0.000752675 0.000688442 0.000595971 0.0012141 0.00180698 0.00172657 0.000592985 0.000577076 0.000558797 0.000697025 0.000716824 0.000552491 0.000541359 0.000541253 0.000483892 0.00045879 0.000414706 0.0004019
threshold=1.5000000000000002 0.75000000000000011 26.500000000000004 1.0000000180025095e-35 -1.0000000180025095e-35 1.0000000180025095e-35 24.500000000000004 1.0000000180025095e-35 1.5000000000000002 -1.0000000180025095e-35 18.500000000000004 16.500000000000004 1.0000000180025095e-35 1.5000000000000002 1.0000000180025095e-35 1.0000000180025095e-35 28.500000000000004 28.500000000000004 25.500000000000004 22.500000000000004 23.500000000000004 1.0000000180025095e-35 1.5000000000000002 14.500000000000002 1.0000000180025095e-35 1.0000000180025095e-35 1.0000000180025095e-35 22.500000000000004 1.0000000180025095e-35 1.0000000180025095e-35
decision_type=2 2 2 2 2 2 2 2 2 2 2 2 2 2 2 2 2 2 2 2 2 2 2 2 2 2 2 2 2 2
left_child=1 2 3 5 23 9 8 -7 -6 -1 11 12 13 -11 15 16 -4 -17 -8 24 -3 22 -22 -5 -10 -21 27 -9 -18 -19
right_child=-2 20 14 4 6 7 18 26 19 10 -12 -13 -14 -15 -16 17 28 29 -20 25 21 -23 -24 -25 -26 -27 -28 -29 -30 -31
leaf_value=-0.026139905988940223 0.031788183131363633 -0.025954152728700906 -0.026170132289882519 -0.026125815030651006 -0.026055768866221296 -0.02605068016678903 -0.026089457302126962 -0.026283847643519327 -0.02602469110311114 -0.026070496107137426 -0.026099322090146055 -0.025869003537000716 -0.026178423184194465 -0.025953400077193371 -0.026102751796926383 -0.026093268415450989 -0.02614807491495133 -0.026082931816002131 -0.026047830051083472 -0.026226276184732288 -0.026015188854800583 -0.025960197010918454 -0.025947116943425018 -0.026029392159290173 -0.02597606713882971 -0.026029079349418241 -0.026143091106250311 -0.026187246855127227 -0.026112159194322096 -0.026144247240302156
leaf_weight=309.59735748171806 20153.025111079216 9275.0040001869202 1225.6724063456059 670.91408610343933 530.55654066801071 67.413213551044464 576.74417117238045 71.539927214384079 356.96973949670792 224.28524103760719 1178.5698296427727 25.822860300540924 45.507797479629517 56.589738607406616 924.90512987971306 1529.9163363575935 387.40607416629791 104.09774646162987 660.9248294532299 12.730840623378752 492.17524337768555 1728.113200455904 194.14483970403671 58.114570617675781 487.51335674524307 781.86944571137428 102.71427109837532 115.98794189095497 1143.0846812129021 1269.7661052048206
leaf_count=633 40434 19012 2505 1372 1086 138 1180 146 731 459 2411 53 93 116 1892 3130 792 213 1353 26 1008 3542 398 119 999 1601 210 237 2338 2596
internal_value=0 -0.867733 -0.869979 -0.869088 -0.868453 -0.870282 -0.867993 -0.872272 -0.867471 -0.869896 -0.869606 -0.868362 -0.868841 -0.86823 -0.870836 -0.870958 -0.871433 -0.870506 -0.868908 -0.86713 -0.86525 -0.865679 -0.866531 -0.870604 -0.866554 -0.867741 -0.873181 -0.874137 -0.870708 -0.87132
internal_weight=0 24608.7 12919.2 6334.37 4136.34 2198.03 3407.31 357.655 2169.64 1840.37 1530.78 352.206 326.383 280.875 6584.85 5659.94 2756.16 2903.78 1237.67 1639.08 11689.4 2414.43 686.32 729.029 844.483 794.6 290.242 187.528 1530.49 1373.86
internal_count=90823 50389 26429 12963 8467 4496 6976 731 4443 3765 3132 721 668 575 13466 11574 5635 5939 2533 3357 23960 4948 1406 1491 1730 1627 593 383 3130 2809
shrinkage=0.03


Tree=12
num_leaves=31
num_cat=0
split_feature=10 8 8 10 8 7 8 7 11 8 11 7 7 2 7 7 5 7 7 3 1 6 1 11 7 8 11 4 7 3
split_gain=3904.99 1496.06 518.474 247.274 545.719 408.137 166.381 150.692 92.9507 89.2646 84.0928 73.739 70.2441 67.5345 53.0953 47.9651 39.825 39.6282 33.3892 33.0308 25.4454 22.9886 22.0797 18.7191 15.6911 15.643 18.4477 15.1878 14.7006 14.4825
threshold=1.0000000180025095e-35 0.75000000000000011 1.0000000180025095e-35 1.5000000000000002 1.0000000180025095e-35 27.500000000000004 0.75000000000000011 28.500000000000004 1.0000000180025095e-35 0.75000000000000011 1.0000000180025095e-35 1.5000000000000002 28.500000000000004 1.0000000180025095e-35 59.000000000000007 29.500000000000004 -1.0000000180025095e-35 59.000000000000007 29.500000000000004 1.0000000180025095e-35 1.5000000000000002 1.0000000180025095e-35 1.5000000000000002 1.0000000180025095e-35 27.500000000000004 1.5000000000000002 1.0000000180025095e-35 1.0000000180025095e-35 25.500000000000004 1.0000000180025095e-35
decision_type=2 2 2 2 2 2 2 2 2 2 2 2 2 2 2 2 2 2 2 2 2 2 2 2 2 2 2 2 2 2
left_child=1 2 8 4 -2 9 12 10 16 11 13 -6 -7 19 15 -14 -1 18 -9 24 -21 -12 -15 -20 -4 26 -3 -17 -28 -23
right_child=3 25 7 -5 5 6 -8 17 -10 -11 21 -13 14 22 -16 27 -18 -19 23 20 -22 29 -24 -25 -26 -27 28 -29 -30 -31
leaf_value=0.13411901453629993 0.079194410369904003 -0.00584377794140535 0.014120068121615955 -0.015698577712398 0.011974044556066248 0.0097440684352259974 -0.014412424564659914 0.060291823507854003 0.13291973568571322 -0.015455547339953947 0.057153683696033478 -0.0084119379682115296 0.027203382875670305 0.042280636558356212 -0.014090439927955688 0.039041168494603387 0.084631256392807996 0.019131205337567823 0.075295662535505209 0.027240939872385159 0.048473904725274831 0.076075039491592097 0.065572287083069961 0.10379751309928159 0.036113047249352097 -0.014732946901518537 0.0025671578895012908 0.061704159677912651 0.051825067715653088 0.12408127183815658
leaf_weight=15.982285022735594 69.409335091710091 176.24772381037474 124.42493369430304 3438.4409060329199 210.97807070612907 152.97513310611248 115.8760866895318 151.69199050217867 55.575741522014141 1562.4931671470404 71.103957079350948 656.89118298888206 146.5576713681221 76.386243894696236 18.477417692542076 42.641736514866352 173.65824173390865 14.614178597927092 101.66715285181999 105.99186134338379 97.542964428663254 21.208621591329578 70.378805756568909 26.053232677280903 38.147496372461319 183.27880361676216 13.127042271196844 70.803258053958416 9.3274009823799116 7.7124453783035269
leaf_count=131 654 2026 1329 40434 2315 1686 1348 1496 449 18218 710 7524 1554 757 213 427 1609 158 967 1127 1010 205 698 231 401 2110 151 709 107 69
internal_value=0 1.43466 2.00326 -0.339472 -0.13205 -0.196662 0.583479 1.65445 3.29336 -0.372354 1.37211 -0.115204 0.869209 1.20853 1.16826 1.28467 2.96006 2.24296 2.32692 0.978777 1.24722 2.21087 1.78166 2.70366 0.64269 -0.280389 -0.086035 1.77285 0.767617 2.96257
internal_weight=0 1534.12 1152.14 6485.54 3047.1 2977.69 547.331 906.924 245.216 2430.36 612.897 867.869 431.455 512.872 278.48 260.003 189.641 294.027 279.412 366.107 203.535 100.025 146.765 127.72 162.572 381.981 198.702 113.445 22.4544 28.9211
internal_count=90823 15741 11347 75082 34648 33994 5937 9158 2189 28057 6306 9839 4589 5322 2903 2690 1740 2852 2694 3867 2137 984 1455 1198 1730 4394 2284 1136 258 274
shrinkage=0.03


Tree=13
num_leaves=31
num_cat=0
split_feature=10 8 7 7 10 7 7 10 8 7 11 10 7 7 7 9 8 7 7 2 8 10 2 7 3 6 11 7 10 11
split_gain=6968.99 12117.5 459.072 290.526 168.549 77.8886 46.8364 45.9765 35.822 43.0478 31.0733 27.9931 23.0979 20.5045 15.8999 13.4389 25.2532 11.8913 11.0352 10.2161 9.9408 13.0738 7.58669 7.40136 7.25305 8.73761 6.5156 6.41893 6.40124 8.37349
threshold=1.5000000000000002 0.75000000000000011 24.500000000000004 1.5000000000000002 1.0000000180025095e-35 22.500000000000004 16.500000000000004 1.0000000180025095e-35 1.0000000180025095e-35 26.500000000000004 1.0000000180025095e-35 1.0000000180025095e-35 18.500000000000004 23.500000000000004 22.500000000000004 1.0000000180025095e-35 1.0000000180025095e-35 29.500000000000004 25.500000000000004 1.0000000180025095e-35 1.5000000000000002 1.0000000180025095e-35 1.0000000180025095e-35 27.500000000000004 1.0000000180025095e-35 1.0000000180025095e-35 1.0000000180025095e-35 19.500000000000004 1.0000000180025095e-35 1.0000000180025095e-35
decision_type=2 2 2 2 2 2 2 2 2 2 2 2 2 2 2 2 2 2 2 2 2 2 2 2 2 2 2 2 2 2
left_child=1 2 3 7 6 12 -5 15 10 11 -4 -10 -6 -3 19 -1 -17 23 -13 27 21 -15 -20 -11 25 -14 -18 -8 29 -25
right_child=-2 13 8 4 5 -7 14 -9 9 17 -12 18 24 20 -16 16 26 -19 22 -21 -22 -23 -24 28 -26 -27 -28 -29 -30 -31
leaf_value=0.037153551532949039 -0.017946610558466185 -0.017335947617238261 0.039728560390356459 0.0023513641033916601 -0.0091239668007782673 0.02051519865960592 0.012627622459408048 0.043375936737986259 0.045445351295541524 0.044417516669592857 0.022779543982915668 0.031988683055567291 0.00046285935100163133 -0.0062631554235833631 0.042204882491229147 0.0084537604384568466 0.028521681347510656 0.04267877538364636 0.037315405243091286 0.0423920659674141 -0.017563475358739488 -0.013829434572121458 0.048093659826249739 0.047244698077999157 0.010398356424165353 0.028129622349139027 0.041270737617400834 0.029294799443953943 0.04944563170372436 0.039356678104937065
leaf_weight=193.1181435585022 11097.515149891376 5258.332661986351 568.84534975886345 38.066020011901855 100.92226812243462 490.09780785441399 26.164481729269028 757.0510146021843 420.50845450162888 831.52872458100319 117.45169302821159 360.06137388944626 159.72907000780106 284.50630474090576 236.17289525270462 54.007400333881378 148.35252732038498 832.85578665137291 337.86697998642921 45.809709846973419 353.48315322399139 740.43590345978737 71.153731316328049 734.34837254881859 230.81249833106995 10.979693472385405 47.671023815870285 101.35539180040359 1008.5432043671608 145.04151436686516
leaf_count=634 40434 19012 1856 133 360 1660 88 2458 1359 2692 394 1191 559 1008 768 186 493 2705 1112 149 1276 2664 231 2365 797 37 155 339 3240 468
internal_value=0 0.451488 1.27477 0.93276 0.629934 0.400202 1.13939 1.29612 1.44113 1.47204 1.2276 1.30739 0.123533 -0.549406 1.23802 1.0403 0.887256 1.52717 1.19396 1.00801 -0.440844 -0.390972 1.30635 1.55919 0.231026 0.0747446 1.05407 0.862501 1.59381 1.53146
internal_weight=0 14705.3 8068.52 2640.31 1440.11 992.541 447.568 1200.2 5428.21 4741.91 686.297 1189.59 502.444 6636.76 409.502 443.149 250.031 3552.32 769.082 173.33 1378.43 1024.94 409.021 2719.46 401.521 170.709 196.024 127.52 1887.93 879.39
internal_count=90823 50389 26429 8816 4890 3413 1477 3926 17613 15363 2250 3893 1753 23960 1344 1468 834 11470 2534 576 4948 3672 1343 8765 1393 596 648 427 6073 2833
shrinkage=0.03


Tree=14
num_leaves=31
num_cat=0
split_feature=8 10 7 10 7 7 10 7 7 2 7 7 10 7 7 8 10 8 7 7 7 8 8 8 11 11 8 6 2 7
split_gain=26837.4 2383.03 889.489 395.545 331.789 213.262 104.202 55.4815 53.4469 39.6253 43.7979 51.0034 38.643 29.4282 17.3559 15.9409 15.6702 15.3009 15.0097 16.8518 14.5397 13.9538 13.1192 12.6763 11.3281 10.9723 10.6829 9.48649 9.27983 9.0531
threshold=0.75000000000000011 1.5000000000000002 26.500000000000004 1.0000000180025095e-35 1.5000000000000002 24.500000000000004 1.0000000180025095e-35 27.500000000000004 22.500000000000004 1.0000000180025095e-35 22.500000000000004 1.5000000000000002 1.5000000000000002 18.500000000000004 23.500000000000004 1.0000000180025095e-35 1.0000000180025095e-35 1.0000000180025095e-35 28.500000000000004 95.500000000000014 18.500000000000004 1.0000000180025095e-35 1.0000000180025095e-35 1.5000000000000002 1.0000000180025095e-35 1.0000000180025095e-35 1.0000000180025095e-35 1.0000000180025095e-35 1.0000000180025095e-35 91.500000000000014
decision_type=2 2 2 2 2 2 2 2 2 2 2 2 2 2 2 2 2 2 2 2 2 2 2 2 2 2 2 2 2 2
left_child=1 2 3 9 27 8 22 21 20 10 11 24 14 -13 -2 -9 23 -7 -17 -20 -6 -8 -4 -16 -1 -11 -10 -5 -19 -24
right_child=12 -3 6 4 5 17 7 15 26 25 -12 13 -14 -15 16 18 -18 28 19 -21 -22 -23 29 -25 -26 -27 -28 -29 -30 -31
leaf_value=-0.0035832678662428307 0.040305224560245267 -0.022040660677403325 -0.020285431219189284 -0.0012770143140778901 0.035497413540155016 -0.01687706752007925 -0.021324413788927583 -0.020452901882339586 -0.01212302787067855 -0.010890808493733134 -0.0083068347229553613 0.028608789367970715 -0.022040660677403325 0.0059568139330932433 0.030790672735611549 -0.0070706685600397511 0.038935390340357368 0.0070468299561928863 -0.013249306415609017 0.0016204929003589994 0.025546495890612322 -0.00084547389826566748 -0.015913731939522766 0.04007732097006924 -0.020331674958909803 -0.020107101936561504 0.016941749400045933 -0.0069294850065897322 -0.00013334237555415055 -0.004930769165537403
leaf_weight=204.97875043749809 8835.2123899459839 17571.406152158976 693.66088166832924 460.35161203145981 166.59439411759377 27.376050174236298 31.244452893733978 153.97662651538849 11.558239758014677 555.85844421386719 803.11585634946823 73.389595419168472 9.1307136118412 173.98895958065987 464.98032188415527 750.60131478309631 1644.1878356039524 946.81436383724213 1213.7857710421085 72.701085448265076 639.18447428941727 719.87685012817383 2260.5870750546455 184.88782334327698 44.179155975580215 147.00550869107246 744.0266777575016 636.95856615900993 195.43851897120476 69.626654148101807
leaf_count=459 19012 40413 1577 1029 360 62 71 348 26 1251 1807 160 21 386 1008 1686 3542 2098 2741 162 1393 1607 5118 398 100 333 1634 1429 436 156
internal_value=0 -0.501286 -0.153634 0.124123 0.312496 0.499105 -0.425095 -0.291115 0.740967 -0.235998 -0.13255 0.100918 1.3217 0.422565 1.32338 -0.371517 1.24589 0.176237 -0.348066 -0.413633 0.920128 -0.0565779 -0.555456 1.11442 -0.218433 -0.427281 0.549905 -0.151937 0.193944 -0.519519
internal_weight=0 29368.3 11796.9 5830.82 3828.3 2730.99 5966.06 2942.19 1561.36 2002.52 1299.65 496.536 11138.4 247.379 11129.3 2191.06 2294.06 1169.63 2037.09 1286.49 805.779 751.121 3023.87 649.868 249.158 702.864 755.585 1097.31 1142.25 2330.21
internal_count=90823 66842 26429 12963 8467 6009 13466 6615 3413 4496 2912 1105 23981 546 23960 4937 4948 2596 4589 2903 1753 1678 6851 1406 559 1584 1660 2458 2534 5274
shrinkage=0.03


Tree=15
num_leaves=1
num_cat=0
split_feature=
split_gain=
threshold=
decision_type=
left_child=
right_child=
leaf_value=0
leaf_weight=
leaf_count=
internal_value=
internal_weight=
internal_count=
shrinkage=1


Tree=16
num_leaves=31
num_cat=0
split_feature=10 8 7 5 10 8 7 11 7 7 7 10 7 7 11 8 7 8 7 10 8 3 7 7 2 7 7 8 7 6
split_gain=39242 0.281433 0.0196072 0.0108021 0.00807219 0.00329647 0.0031998 0.00254102 0.00153359 0.00148308 0.00139005 0.00132199 0.00383684 0.00368471 0.00154023 0.00136943 0.00120933 0.00106664 0.0010649 0.00127186 0.00111482 0.001048 0.000902491 0.000894384 0.00110255 0.00101456 0.00265246 0.000810444 0.000770352 0.00085262
threshold=1.5000000000000002 0.75000000000000011 26.500000000000004 -1.0000000180025095e-35 1.0000000180025095e-35 1.0000000180025095e-35 24.500000000000004 1.0000000180025095e-35 1.5000000000000002 14.500000000000002 25.500000000000004 1.0000000180025095e-35 28.500000000000004 28.500000000000004 1.0000000180025095e-35 1.0000000180025095e-35 22.500000000000004 1.0000000180025095e-35 23.500000000000004 1.0000000180025095e-35 1.5000000000000002 1.0000000180025095e-35 22.500000000000004 22.500000000000004 1.0000000180025095e-35 1.5000000000000002 18.500000000000004 1.0000000180025095e-35 18.500000000000004 1.0000000180025095e-35
decision_type=2 2 2 2 2 2 2 2 2 2 2 2 2 2 2 2 2 2 2 2 2 2 2 2 2 2 2 2 2 2
left_child=1 2 3 9 5 -5 8 23 -6 -1 -8 12 14 27 -4 -14 21 -18 -3 20 -20 28 -9 24 25 -7 -27 -13 -10 -30
right_child=-2 18 11 4 6 7 10 22 16 -11 -12 13 15 -15 -16 -17 17 -19 19 -21 -22 -23 -24 -25 -26 26 -28 -29 29 -31
leaf_value=-0.02572733399501 0.030937203175860566 -0.025463547954442899 -0.025771812775081893 -0.025554948517039898 -0.025611040655160722 -0.025668027619669517 -0.025661352845553674 -0.02585988556098312 -0.025479145979528002 -0.025596675699135211 -0.025597411514939179 -0.025753499486780518 -0.025736675720599751 -0.025728415551535523 -0.025689159472436079 -0.025678008129534427 -0.02585190772032615 -0.025574360904667224 -0.025544770320604909 -0.025472223886815859 -0.025459560458786924 -0.025498366063260215 -0.025731427493022766 -0.025686078175520512 -0.025728249214476875 -0.025418588220756183 -0.025640736395868655 -0.025659261673030134 -0.025599037839005526 -0.025325085526413223
leaf_weight=1058.4721710681915 20198.44619768858 9204.2870447039604 1218.7806233167648 206.06597426533699 527.05100035667419 174.87286224961281 573.13369551301003 78.923279821872711 72.638802230358124 84.422621309757233 656.48589697480202 86.578615665435791 482.87430930137634 1528.6618019938469 243.44262808561325 1385.5954661667347 12.665300607681273 776.52806049585342 488.66881301999092 1715.0425420403481 192.67083293199539 483.93085363507271 130.79725468158722 856.14791452884674 93.349801748991013 70.143209367990494 155.860585719347 1599.3792282938957 271.23893949389458 10.625166893005369
leaf_count=2177 40434 19012 2505 425 1086 360 1180 162 150 174 1353 178 993 3144 501 2852 26 1601 1008 3542 398 999 269 1762 192 145 321 3293 559 22
internal_value=0 -0.852509 -0.855735 -0.854475 -0.853858 -0.855591 -0.852953 -0.856087 -0.852219 -0.857256 -0.85424 -0.856947 -0.857388 -0.856489 -0.858602 -0.856439 -0.851739 -0.852627 -0.84894 -0.849533 -0.850689 -0.850902 -0.859326 -0.855584 -0.854513 -0.853792 -0.852393 -0.85547 -0.852209 -0.852957
internal_weight=0 24439.3 12838.7 6293.35 5150.46 1766.16 3384.3 1560.09 2154.68 1142.89 1229.62 6545.31 3330.69 3214.62 1462.22 1868.47 1627.63 789.193 11600.7 2396.38 681.34 838.434 209.721 1350.37 494.226 400.877 226.004 1685.96 354.503 281.864
internal_count=90823 50389 26429 12963 10612 3636 6976 3211 4443 2351 2533 13466 6851 6615 3006 3845 3357 1627 23960 4948 1406 1730 431 2780 1018 826 466 3471 731 581
shrinkage=0.03


Tree=17
num_leaves=31
num_cat=0
split_feature=10 8 8 10 8 8 7 7 2 11 7 11 7 7 7 7 6 3 1 1 11 7 1 8 11 7 7 7 11 4
split_gain=3644.91 1312.9 409.516 245.4 526.751 341.618 300.526 125.416 70.8237 66.1014 51.2541 48.9788 48.4086 45.253 41.2592 32.9417 29.8481 29.4498 27.6868 22.1437 19.719 19.2167 17.9845 15.5343 17.6524 15.2116 14.1208 13.2483 13.0597 12.7207
threshold=1.0000000180025095e-35 0.75000000000000011 1.0000000180025095e-35 1.5000000000000002 0.75000000000000011 1.0000000180025095e-35 28.500000000000004 28.500000000000004 1.0000000180025095e-35 1.0000000180025095e-35 1.5000000000000002 1.0000000180025095e-35 59.000000000000007 26.500000000000004 29.500000000000004 59.000000000000007 1.0000000180025095e-35 1.0000000180025095e-35 1.5000000000000002 1.5000000000000002 1.0000000180025095e-35 26.500000000000004 1.5000000000000002 1.5000000000000002 1.0000000180025095e-35 29.500000000000004 27.500000000000004 25.500000000000004 1.0000000180025095e-35 1.0000000180025095e-35
decision_type=2 2 2 2 2 2 2 2 2 2 2 2 2 2 2 2 2 2 2 2 2 2 2 2 2 2 2 2 2 2
left_child=1 2 9 4 5 -2 10 8 11 16 -7 17 14 -12 -8 18 -1 26 20 -19 -9 -13 28 24 -3 -20 -4 -26 -10 -16
right_child=3 23 7 -5 -6 6 12 15 22 -11 13 21 -14 -15 29 -17 -18 19 25 -21 -22 -23 -24 -25 27 -27 -28 -29 -30 -31
leaf_value=0.075432009120079357 0.071956207098411967 -0.00578147066306052 0.013580767557512344 -0.015683862014380646 -0.015366759790709863 0.011557768523654682 0.025917172977471058 0.049413869897116096 0.039686572885318232 0.11509132864582101 -0.010333712952107783 0.039890841627834163 -0.014067231571286018 0.0044173833563116568 0.036770703177541317 0.018373571227988075 0.10841913970452592 0.025945601446698639 0.064363325473031863 0.045363434809516372 0.076185996875273596 0.071453528888436965 0.063463106634805769 -0.01470685370141194 0.0025397124883600377 0.083614974324162969 0.034093149915158334 0.048647384915552407 0.066826549132488797 0.057009266850216608
leaf_weight=178.1685556024313 75.057387016713619 175.22305157035589 126.64388419687748 3372.331612855196 1652.7911654785275 214.09691839665174 150.9827521443367 119.38053832948208 79.891605496406555 63.048991933465004 513.01979444175959 35.500780902802944 18.300373785197735 294.68727481365204 44.448591016232967 14.930442117154596 28.6579245403409 109.2128936573863 80.341989085078239 102.42732080817223 31.240113236010075 33.97655177116394 92.59887071698904 180.59540370106697 13.14595787972212 68.37590017914772 39.664254933595657 9.7820088043808919 19.939987145364285 75.304826185107231
leaf_count=1523 654 2026 1329 40434 19566 2315 1554 1094 757 449 5917 339 213 3293 427 158 217 1127 739 1010 267 302 858 2110 151 594 401 107 183 709
internal_value=0 1.34895 1.85242 -0.337078 -0.13097 0.323707 0.204905 1.54479 1.2907 2.94001 -0.0497542 1.07252 1.10518 -0.165062 1.21158 2.06212 2.66676 0.930661 2.13442 1.17811 1.83222 1.8442 1.79801 -0.278091 -0.0847486 2.44049 0.615765 0.740371 1.50358 1.64991
internal_weight=0 1602.75 1224 6411.02 3038.69 1385.9 1310.84 954.125 639.856 269.875 1021.8 447.426 289.037 807.707 270.736 314.269 206.826 377.948 299.339 211.64 150.621 69.4773 192.43 378.746 198.151 148.718 166.308 22.928 99.8316 119.753
internal_count=90823 15741 11347 75082 34648 15082 14428 9158 6306 2189 11525 4508 2903 9210 2690 2852 1740 3867 2694 2137 1361 641 1798 4394 2284 1333 1730 258 940 1136
shrinkage=0.03


Tree=18
num_leaves=31
num_cat=0
split_feature=10 8 7 7 10 7 7 10 8 7 11 10 7 7 7 9 8 7 7 8 10 2 3 6 9 7 5 9 7 11
split_gain=6702.01 11305.6 402.827 258.97 153.245 72.6171 42.2677 40.987 31.7218 36.8021 27.5904 24.3693 22.1775 20.5373 13.8663 12.2074 22.8937 10.2236 9.96249 9.92894 12.8964 9.0203 6.93805 8.29816 6.76763 6.41117 6.07059 5.95595 5.84251 5.82598
threshold=1.5000000000000002 0.75000000000000011 24.500000000000004 1.5000000000000002 1.0000000180025095e-35 22.500000000000004 16.500000000000004 1.0000000180025095e-35 1.0000000180025095e-35 26.500000000000004 1.0000000180025095e-35 1.0000000180025095e-35 18.500000000000004 23.500000000000004 22.500000000000004 1.0000000180025095e-35 1.0000000180025095e-35 29.500000000000004 25.500000000000004 1.5000000000000002 1.0000000180025095e-35 1.0000000180025095e-35 1.0000000180025095e-35 1.0000000180025095e-35 1.0000000180025095e-35 27.500000000000004 1.0000000180025095e-35 1.0000000180025095e-35 19.500000000000004 1.0000000180025095e-35
decision_type=2 2 2 2 2 2 2 2 2 2 2 2 2 2 2 2 2 2 2 2 2 2 2 2 2 2 2 2 2 2
left_child=1 2 3 7 6 12 -5 15 10 11 27 -10 -6 -3 21 29 -17 25 -13 20 -15 28 23 -14 -20 26 -11 -4 -8 -1
right_child=-2 13 8 4 5 -7 14 -9 9 17 -12 18 22 19 -16 16 -18 -19 24 -21 -22 -23 -24 -25 -26 -27 -28 -29 -30 -31
leaf_value=0.03283848256054088 -0.017868172997272277 -0.01726256697857639 0.036723102889990374 0.0023049307215707174 -0.0090212808126529792 0.019762336574127869 0.012239614207006106 0.041016054128746621 0.042914355179134826 0.042440694958783928 0.021813860935457497 0.030490595460118265 0.00041837209939949111 -0.0061891534245814847 0.039918038237089504 0.008131514290823677 0.030034777367359298 0.040357805401095834 0.035925492552490203 -0.01749405189712714 -0.013728367673524837 0.040107930177010594 0.010121044192874348 0.027135779952181669 0.048258565928206619 0.045036398711221677 0.029448254089820058 0.047977255000285303 0.028034298239315053 0.046086041681561864
leaf_weight=162.61379989981651 10897.155293405056 5182.3390890955925 542.44398003816605 38.135435402393341 100.15773326158524 498.6090943813324 26.446977734565735 784.29207241535187 436.25442227721214 828.87449017167091 119.93854179978371 369.93896558880806 160.03341761231422 283.23087227344513 244.55320093035698 54.561986535787582 201.76348185539246 862.63353556394577 377.21789059042931 348.44322293996811 731.8330714404583 47.428668439388275 232.73396751284599 11.19436004757881 44.79964154958725 1963.0293471813202 33.681410610675812 45.90361300110817 103.81660148501396 36.60215824842453
leaf_count=518 40434 19012 1711 133 360 1660 88 2458 1359 2585 394 1191 559 1008 768 186 648 2705 1202 1276 2664 149 797 37 141 6073 107 145 339 116
internal_value=0 0.436685 1.20965 0.892382 0.607445 0.388153 1.08507 1.22863 1.36212 1.39062 1.16426 1.24069 0.120519 -0.546688 1.17613 0.990062 0.845747 1.44055 1.13615 -0.437487 -0.387491 0.963537 0.224958 0.0721692 1.24116 1.46964 1.39778 1.25337 0.827585 1.17575
internal_weight=0 14873.5 8327.66 2702.94 1463.11 1002.73 460.381 1239.83 5624.72 4916.43 708.286 1228.21 504.119 6545.85 422.245 455.541 256.325 3688.22 791.956 1363.51 1015.06 177.692 403.962 171.228 422.018 2825.59 862.556 588.348 130.264 199.216
internal_count=90823 50389 26429 8816 4890 3413 1477 3926 17613 15363 2250 3893 1753 23960 1344 1468 834 11470 2534 4948 3672 576 1393 596 1343 8765 2692 1856 427 634
shrinkage=0.03


Tree=19
num_leaves=31
num_cat=0
split_feature=8 10 7 10 7 7 10 7 7 11 10 7 2 7 8 8 7 7 10 7 7 7 8 7 8 8 8 8 6 2
split_gain=25353.7 2300.57 856.907 377.563 314.703 200.443 101.677 53.6879 49.8259 38.7551 35.8847 29.1176 41.7974 16.0045 15.6341 14.6982 14.6527 16.3314 14.4892 13.9955 37.8741 20.788 13.5541 13.4826 12.9081 11.7192 10.1787 9.33335 9.22178 8.86824
threshold=0.75000000000000011 1.5000000000000002 26.500000000000004 1.0000000180025095e-35 1.5000000000000002 24.500000000000004 1.0000000180025095e-35 27.500000000000004 22.500000000000004 1.0000000180025095e-35 1.5000000000000002 24.500000000000004 1.0000000180025095e-35 23.500000000000004 1.0000000180025095e-35 1.0000000180025095e-35 28.500000000000004 95.500000000000014 1.0000000180025095e-35 22.500000000000004 1.5000000000000002 18.500000000000004 1.0000000180025095e-35 18.500000000000004 1.0000000180025095e-35 1.5000000000000002 1.0000000180025095e-35 1.0000000180025095e-35 1.0000000180025095e-35 1.0000000180025095e-35
decision_type=2 2 2 2 2 2 2 2 2 2 2 2 2 2 2 2 2 2 2 2 2 2 2 2 2 2 2 2 2 2
left_child=1 2 3 9 27 8 24 22 23 11 13 12 19 -2 -9 -7 -16 -18 25 20 -1 -22 -8 -6 -4 -15 -10 -5 -29 -17
right_child=10 -3 6 4 5 15 7 14 26 -11 -12 -13 -14 18 16 29 17 -19 -20 -21 21 -23 -24 -25 -26 -27 -28 28 -30 -31
leaf_value=-0.0035719169732256815 0.038730766787604315 -0.02177148426526063 -0.020102594616782061 -0.015724495860527935 0.034157304290084727 -0.016707147998056209 -0.021153098128895695 -0.020277965188533476 -0.01203379976727703 -0.016560563962921399 -0.02177148426526063 -0.010553292882436284 -0.0094995996477836072 0.029647075648996671 -0.0069949634028233692 0.0068023033091377701 -0.013108553882532438 0.0015171036988025762 0.037426316986433464 -0.0034889806874836369 0.02756841373037365 0.0079419255513925209 -0.00089263547811274072 0.024641077216105114 -0.01542290237683174 0.038509056284301874 0.01637311767811234 -0.00051063372243006654 -0.0062542624778491908 -0.00020944790520312207
leaf_weight=204.92281466722488 8976.3937920033932 17320.089764356613 688.02973255515099 63.185622781515121 169.02453315258026 27.201464682817459 30.99595582485199 152.82076647877693 11.526764154434202 321.23245149850845 9.0001208782196027 589.86507901549339 433.50366288423538 471.17171248793602 749.11110079288483 950.99528795480728 1208.2495517730713 72.855747729539871 1669.8600632250309 227.88413655757904 71.992572396993637 149.28903555870056 720.61961010098457 646.53405344486237 2316.6785359680653 187.84227758646011 750.27718052268028 433.08410951495171 600.31841361522675 195.75755414366722
leaf_count=459 19012 40413 1577 143 360 62 71 348 26 731 21 1333 978 1008 1686 2098 2741 162 3542 511 155 329 1607 1393 5274 398 1634 967 1348 436
internal_value=0 -0.493799 -0.152984 0.118787 0.301936 0.482483 -0.42051 -0.288117 0.715337 -0.233813 1.27027 -0.172877 -0.0758495 1.27186 -0.367482 0.169612 -0.344263 -0.409227 1.19799 0.0837457 0.190706 0.477576 -0.0576053 0.887111 -0.549816 1.07244 0.531443 -0.151052 -0.12824 0.186845
internal_weight=0 29106 11786 5846.59 3847.9 2751.32 5939.36 2934.65 1577.36 1998.69 11314.3 1677.46 1087.59 11305.3 2183.04 1173.95 2030.22 1281.11 2328.87 654.089 426.204 221.282 751.616 815.559 3004.71 659.014 761.804 1096.59 1033.4 1146.75
internal_count=90823 66842 26429 12963 8467 6009 13466 6615 3413 4496 23981 3765 2432 23960 4937 2596 4589 2903 4948 1454 943 484 1678 1753 6851 1406 1660 2458 2315 2534
shrinkage=0.03


Tree=20
num_leaves=1
num_cat=0
split_feature=
split_gain=
threshold=
decision_type=
left_child=
right_child=
leaf_value=0
leaf_weight=
leaf_count=
internal_value=
internal_weight=
internal_count=
shrinkage=1


Tree=21
num_leaves=31
num_cat=0
split_feature=10 8 7 5 10 8 7 11 7 7 7 8 7 7 10 8 11 10 7 7 3 8 7 7 7 2 7 6 10 8
split_gain=37452.1 0.456571 0.0288166 0.0170864 0.0118778 0.00557294 0.00509097 0.00439467 0.00235325 0.00233568 0.00224787 0.00212157 0.00200372 0.00173795 0.0019616 0.0016499 0.00163968 0.00283357 0.00716717 0.00572692 0.00160849 0.00158812 0.00131905 0.00197703 0.00202532 0.00455155 0.00124371 0.00129314 0.00119091 0.00117163
threshold=1.5000000000000002 0.75000000000000011 26.500000000000004 -1.0000000180025095e-35 1.0000000180025095e-35 1.0000000180025095e-35 24.500000000000004 1.0000000180025095e-35 25.500000000000004 1.5000000000000002 14.500000000000002 1.0000000180025095e-35 22.500000000000004 23.500000000000004 1.0000000180025095e-35 1.0000000180025095e-35 1.0000000180025095e-35 1.0000000180025095e-35 28.500000000000004 28.500000000000004 1.0000000180025095e-35 1.5000000000000002 22.500000000000004 1.5000000000000002 18.500000000000004 1.0000000180025095e-35 18.500000000000004 1.0000000180025095e-35 1.0000000180025095e-35 1.0000000180025095e-35
decision_type=2 2 2 2 2 2 2 2 2 2 2 2 2 2 2 2 2 2 2 2 2 2 2 2 2 2 2 2 2 2
left_child=1 2 3 10 5 -5 9 22 -8 -6 28 -4 20 -3 21 -14 17 18 -13 -19 26 -15 23 -7 25 -25 -11 -28 -1 -30
right_child=-2 13 11 4 6 7 8 -9 -10 12 -12 16 15 14 -16 -17 -18 19 -20 -21 -22 -23 -24 24 -26 -27 27 -29 29 -31
leaf_value=-0.025381998632678128 0.030145166305881321 -0.025002542825078009 -0.025354438699527908 -0.025115845467024198 -0.025193924161270184 -0.025294158605796258 -0.025260184950905155 -0.025410627252713484 -0.025176694034451347 -0.025026135760495616 -0.025178902699348631 -0.025397911364062484 -0.025496025017386858 -0.02510344707209617 -0.025014162651633112 -0.025149860507990493 -0.025264692111258501 -0.025251209224097577 -0.025287077148712204 -0.025339012033245855 -0.025052853430930232 -0.025001321511809508 -0.025285166769028408 -0.02495040700738934 -0.025223337784250507 -0.025560220564981997 -0.025178669811957946 -0.024839705642891109 -0.02515086701609626 -0.025325523874486465
leaf_weight=389.17387461662292 20216.531244456768 9126.2223319709301 964.48576149344444 204.45562046766281 523.23723271489143 206.10898053646088 569.22501367330551 208.46448078751564 651.66592654585838 72.037477791309357 83.805268228054047 982.14603725075722 12.594314098358153 484.8232878446579 1700.6394979059696 770.72862550616264 741.00667953491211 1431.9937930703163 1128.3908131122589 1254.0730090737343 480.02170890569687 191.04504865407944 850.36302235722542 69.528222143650055 201.98552250862122 13.089393466711043 269.25155091285706 10.52526795864105 36.587442874908447 625.92382764816284
leaf_count=805 40434 19012 1996 425 1086 427 1180 431 1353 150 174 2031 26 1008 3542 1601 1536 2969 2338 2596 999 398 1762 145 419 27 559 22 76 1296
internal_value=0 -0.838185 -0.842305 -0.840772 -0.839993 -0.842102 -0.838891 -0.842749 -0.840521 -0.837961 -0.844281 -0.843779 -0.837366 -0.833616 -0.834378 -0.838514 -0.843541 -0.843755 -0.844622 -0.843073 -0.836286 -0.835819 -0.842086 -0.84078 -0.839072 -0.834901 -0.83791 -0.838864 -0.844678 -0.843863
internal_weight=0 24253.6 12750.9 6248.77 5113.28 1754 3359.29 1549.54 1220.89 2138.4 1135.49 6502.1 1615.16 11502.7 2376.51 783.323 5537.61 4796.6 2110.54 2686.07 831.836 675.868 1341.08 490.712 284.603 82.6176 351.814 279.777 1051.69 662.511
internal_count=90823 50389 26429 12963 10612 3636 6976 3211 2533 4443 2351 13466 3357 23960 4948 1627 11470 9934 4369 5565 1730 1406 2780 1018 591 172 731 581 2177 1372
shrinkage=0.03


Tree=22
num_leaves=31
num_cat=0
split_feature=10 8 8 10 8 7 8 7 5 7 7 11 7 11 8 7 3 1 6 1 11 8 11 6 7 7 11 7 2 7
split_gain=3412.18 1160.78 330.105 243.598 512.457 305.939 236.404 107.158 78.2367 54.9417 49.1939 49.1116 44.1234 42.2577 39.6676 35.8121 32.7845 24.5197 22.6799 17.5489 23.2155 15.4313 16.9109 14.9234 14.9134 16.0757 14.6873 12.3131 11.2597 14.6006
threshold=1.0000000180025095e-35 0.75000000000000011 1.0000000180025095e-35 1.5000000000000002 0.75000000000000011 28.500000000000004 1.0000000180025095e-35 27.500000000000004 -1.0000000180025095e-35 59.000000000000007 1.5000000000000002 1.0000000180025095e-35 26.500000000000004 1.0000000180025095e-35 1.0000000180025095e-35 29.500000000000004 1.0000000180025095e-35 1.5000000000000002 1.0000000180025095e-35 1.5000000000000002 1.0000000180025095e-35 1.5000000000000002 1.0000000180025095e-35 1.0000000180025095e-35 28.500000000000004 91.500000000000014 1.0000000180025095e-35 23.500000000000004 1.0000000180025095e-35 21.500000000000004
decision_type=2 2 2 2 2 2 2 2 2 2 2 2 2 2 2 2 2 2 2 2 2 2 2 2 2 2 2 2 2 2
left_child=1 2 11 4 5 6 -2 8 -4 14 -8 18 -12 17 -7 -16 26 -9 -1 20 -18 22 -3 -22 -19 -26 -10 -24 29 -13
right_child=3 21 7 -5 -6 9 10 13 16 -11 12 28 -14 -15 15 -17 19 24 -20 -21 23 -23 27 -25 25 -27 -28 -29 -30 -31
leaf_value=0.068848836913417713 0.064774060863770244 -0.0057145930308927662 0.061282456003442315 -0.015669235809238909 -0.015349580754319645 0.07155023111448322 0.011173248041260004 0.041771470362303789 0.014923946205183202 -0.014182665604869424 -0.010281295381008545 0.040352003047083515 0.0042759773707161238 0.072373700288220225 0.024722117572758044 0.046250865397694352 0.0226743448104046 0.04426292004053678 0.096232209850505845 0.04335350207963215 0.042659549187362221 -0.014679860600565283 -0.0037196014998191764 0.10002948649066015 0.064417135522279151 0.014203822489955508 0.039994729701708358 0.040282501424916482 0.11980119320135514 0.098638559017598756
leaf_weight=191.79287614673376 50.845952570438385 174.1353292837739 80.357805140316486 3306.3705380111933 1626.7780498862267 28.420446127653122 217.05804298818111 190.79063924401999 142.47031424194574 19.469479084014893 508.68877263367176 4.2328896522521964 296.68658789992332 88.882866062223911 155.3344644010067 125.90493462234735 118.36273571103811 59.327610023319721 31.724029183387756 132.11134899407625 19.453030332922939 177.86242862045765 10.002885088324549 5.1640765815973273 132.40725122392178 5.9981141984462729 24.672325097024441 13.378536842763422 21.138164818286896 44.858003750443459
leaf_count=1523 413 2026 688 40434 19566 230 2315 1734 1454 224 5917 28 3293 728 1554 1136 1167 550 217 1223 175 2110 115 39 1115 62 223 143 132 289
internal_value=0 1.27251 1.72171 -0.334622 -0.129762 0.313227 0.05458 1.44794 1.13506 1.15666 -0.0500802 2.65371 -0.163955 1.79043 1.25911 1.14534 0.970127 1.64813 2.42451 1.18236 0.939576 -0.275667 -0.0832669 1.82315 1.8949 2.0747 0.620823 0.71526 3.38317 3.12043
internal_weight=0 1669.12 1293.74 6335.56 3029.19 1402.41 1073.28 999.998 522.592 329.129 1022.43 293.746 805.375 477.406 309.66 281.239 442.234 388.524 223.517 275.091 142.98 375.379 197.517 24.6171 197.733 138.405 167.143 23.3814 70.2291 49.0909
internal_count=90823 15741 11347 75082 34648 15082 11938 9158 4969 3144 11525 2189 9210 4189 2920 2690 4281 3461 1740 2604 1381 4394 2284 214 1727 1177 1677 258 449 317
shrinkage=0.03


Tree=23
num_leaves=31
num_cat=0
split_feature=10 8 7 7 10 7 7 10 8 7 11 7 10 7 7 9 8 8 10 2 7 2 3 3 6 11 7 5 7 9
split_gain=6448.95 10570.5 355.246 231.796 139.891 67.758 38.3325 36.686 28.3007 31.9445 24.6497 21.2956 21.1811 20.5817 12.2812 11.116 20.85 9.92239 12.7237 9.27437 8.97925 8.06096 7.39716 6.64158 7.89155 5.63369 5.55877 5.54636 5.53875 5.49056
threshold=1.5000000000000002 0.75000000000000011 24.500000000000004 1.5000000000000002 1.0000000180025095e-35 22.500000000000004 16.500000000000004 1.0000000180025095e-35 1.0000000180025095e-35 26.500000000000004 1.0000000180025095e-35 18.500000000000004 1.0000000180025095e-35 23.500000000000004 22.500000000000004 1.0000000180025095e-35 1.0000000180025095e-35 1.5000000000000002 1.0000000180025095e-35 1.0000000180025095e-35 29.500000000000004 1.0000000180025095e-35 1.0000000180025095e-35 1.0000000180025095e-35 1.0000000180025095e-35 1.0000000180025095e-35 91.500000000000014 -1.0000000180025095e-35 27.500000000000004 1.0000000180025095e-35
decision_type=2 2 2 2 2 2 2 2 2 2 2 2 2 2 2 2 2 2 2 2 2 2 2 2 2 2 2 2 2 2
left_child=1 2 3 7 6 11 -5 15 10 12 26 -6 -10 -3 21 -1 -17 18 -15 22 28 -8 -14 24 -13 -18 29 -7 -11 -4
right_child=-2 13 8 4 5 27 14 -9 9 20 -12 23 19 17 -16 16 25 -19 -20 -21 -22 -23 -24 -25 -26 -27 -28 -29 -30 -31
leaf_value=0.033561070079556388 -0.017791253263134015 -0.017188745038550151 0.034479071509901524 0.0022604832198647035 -0.0089153347577309461 0.041093588408516367 0.023831345250353894 0.038882518821500837 0.040593272375596311 0.03971417637811555 0.02090934071195075 0.00037950000111214912 0.027526455909214424 -0.0061106892101867039 0.037888169592647056 0.0078324401394593811 0.025781727002757646 -0.017424430111748594 -0.013624778525548031 0.039429464849133823 0.038246105210306192 0.038070715712226005 0.033858809403003516 0.009859713732795386 0.026211960101521659 0.037286231950622341 0.059306795820478257 0.01860794015453544 0.042549465468828526 0.045129246593700219
leaf_weight=205.04417711496353 10696.80748718977 5105.1202788949013 550.89808532595634 38.201613336801529 99.374717473983765 10.072991967201231 132.9603673517704 810.35750243067741 451.57971754670143 891.93954613804817 122.34468147158623 160.29998672008514 301.48227858543396 281.88535231351852 252.41481751203537 55.084236264228821 156.47127476334572 343.32904598116875 723.05928266048431 142.96153527498245 891.29901501536369 48.954676270484924 369.52277904748917 234.56691411137581 11.400153219699858 50.728835105895996 8.8243622183799726 496.75070133805275 2034.5967339873314 47.30687427520752
leaf_count=634 40434 19012 1685 133 360 33 427 2458 1359 2692 394 559 943 1008 768 186 493 1276 2664 436 2705 149 1155 797 37 155 27 1627 6073 144
internal_value=0 0.422827 1.15036 0.855128 0.586447 0.376767 1.03572 1.1674 1.29068 1.31711 1.10647 0.117768 1.17942 -0.543936 1.12019 0.94427 0.807906 -0.434045 -0.383903 1.08306 1.36275 0.922109 1.03379 0.219266 0.0698222 0.953279 1.189 0.635161 1.38951 1.17738
internal_weight=0 15028.8 8575.44 2762.68 1485 1012.47 472.531 1277.69 5812.76 5083.38 729.374 505.642 1265.55 6453.39 434.33 467.329 262.284 1348.27 1004.94 813.967 3817.84 181.915 671.005 406.267 171.7 207.2 607.029 506.824 2926.54 598.205
internal_count=90823 50389 26429 8816 4890 3413 1477 3926 17613 15363 2250 1753 3893 23960 1344 1468 834 4948 3672 2534 11470 576 2098 1393 596 648 1856 1660 8765 1829
shrinkage=0.03


Tree=24
num_leaves=31
num_cat=0
split_feature=8 10 7 10 7 7 10 7 7 11 10 7 2 8 7 7 7 8 10 7 7 7 8 7 8 8 8 6 7 2
split_gain=23987.2 2223.59 825.328 360.505 298.573 188.625 99.17 52.2435 46.576 37.754 33.415 28.0951 40.3554 20.1975 16.4412 14.8814 14.7147 14.1194 13.4876 13.3397 36.1475 19.6259 12.7331 12.5638 10.9066 9.70413 9.0183 8.97454 8.80467 8.52698
threshold=0.75000000000000011 1.5000000000000002 26.500000000000004 1.0000000180025095e-35 1.5000000000000002 24.500000000000004 1.0000000180025095e-35 28.500000000000004 22.500000000000004 1.0000000180025095e-35 1.5000000000000002 24.500000000000004 1.0000000180025095e-35 1.0000000180025095e-35 95.500000000000014 23.500000000000004 27.500000000000004 1.0000000180025095e-35 1.0000000180025095e-35 22.500000000000004 1.5000000000000002 18.500000000000004 1.0000000180025095e-35 18.500000000000004 1.5000000000000002 1.0000000180025095e-35 1.0000000180025095e-35 1.0000000180025095e-35 91.500000000000014 1.0000000180025095e-35
decision_type=2 2 2 2 2 2 2 2 2 2 2 2 2 2 2 2 2 2 2 2 2 2 2 2 2 2 2 2 2 2
left_child=1 2 3 9 26 8 22 13 23 11 15 12 19 -8 -9 -2 -15 -7 24 20 -1 -22 -4 -6 -17 -10 -5 -28 -24 -19
right_child=10 -3 6 4 5 17 7 14 25 -11 -12 -13 -14 16 -16 18 -18 29 -20 -21 21 -23 28 -25 -26 -27 27 -29 -30 -31
leaf_value=-0.0035646515824157071 0.037296246169821315 -0.021514892689530985 -0.019921905602705851 -0.0155399820185317 0.032921122068067118 -0.016535667775608043 -0.019704219526424819 -0.013585050879500554 -0.011941190065048003 -0.016400810222899517 -0.021514892689530985 -0.010429411732196366 -0.0094032383901755025 -0.00091812929026864598 0.00072321310181329955 0.028585796306828518 -0.0069247026027048257 0.0065737223661072822 0.036046738128501642 -0.0034597998355479637 0.026682931046737302 0.0076927057665715547 -0.015582335598927494 0.023790639776107701 0.037079448988930556 0.015833177940845627 -0.00053892242344175014 -0.0062055064928045632 -0.0047220012539068313 -0.00029426824110285576
leaf_weight=204.88613772392273 9099.0023830235004 17063.623356789351 682.24895924329758 62.767913579940796 171.17895850539207 27.020713627338409 77.352311730384827 1304.1357342898846 11.493786871433256 319.26635318994522 8.8668520152568799 587.68075397610664 432.30225422978401 721.0198592543602 76.518234193325043 476.72243872284889 747.72077417373657 954.86523896455765 1692.2818555533886 227.72516176104546 72.741864800453186 149.93495941162109 2233.198305606842 653.2517049908638 190.41047966480255 756.10427421331406 433.35056856274605 599.56880331039429 69.268452972173691 196.11144897341728
leaf_count=459 19012 40413 1577 143 360 62 178 2974 26 731 21 1333 978 1607 170 1008 1686 2098 3542 511 155 329 5118 1393 398 1634 967 1348 156 436
internal_value=0 -0.486515 -0.152181 0.113758 0.291916 0.466704 -0.415817 -0.285019 0.691172 -0.231537 1.22336 -0.171476 -0.0762818 -0.158764 -0.426402 1.22486 -0.132534 0.163342 1.15409 0.0801754 0.184302 0.463208 -0.544074 0.856214 1.03367 0.51391 -0.149969 -0.127605 -0.50852 0.180117
internal_weight=0 28835.3 11771.7 5860.25 3865.71 2770.03 5911.46 2926.75 1592.03 1994.54 11467.3 1675.27 1087.59 1546.09 1380.65 11458.4 1468.74 1178 2359.41 655.288 427.563 222.677 2984.72 824.431 667.133 767.598 1095.69 1032.92 2302.47 1150.98
internal_count=90823 66842 26429 12963 8467 6009 13466 6615 3413 4496 23981 3765 2432 3471 3144 23960 3293 2596 4948 1454 943 484 6851 1753 1406 1660 2458 2315 5274 2534
shrinkage=0.03


Tree=25
num_leaves=1
num_cat=0
split_feature=
split_gain=
threshold=
decision_type=
left_child=
right_child=
leaf_value=0
leaf_weight=
leaf_count=
internal_value=
internal_weight=
internal_count=
shrinkage=1


Tree=26
num_leaves=31
num_cat=0
split_feature=10 8 7 5 10 8 7 11 7 7 7 8 11 10 7 7 7 10 8 7 3 8 7 7 7 2 7 7 7 6
split_gain=35775.6 0.651648 0.0375413 0.0216289 0.0163736 0.00763451 0.00707302 0.00649013 0.00350817 0.00312042 0.0030215 0.00280039 0.00263957 0.00352412 0.00924648 0.00827768 0.00252235 0.00272634 0.00227144 0.00219017 0.00217536 0.00210922 0.00198409 0.00186431 0.00308534 0.00306004 0.00517671 0.00177759 0.00177185 0.00173258
threshold=1.5000000000000002 0.75000000000000011 26.500000000000004 -1.0000000180025095e-35 1.0000000180025095e-35 1.0000000180025095e-35 24.500000000000004 1.0000000180025095e-35 14.500000000000002 1.5000000000000002 22.500000000000004 1.0000000180025095e-35 1.0000000180025095e-35 1.0000000180025095e-35 28.500000000000004 28.500000000000004 23.500000000000004 1.0000000180025095e-35 1.0000000180025095e-35 25.500000000000004 1.0000000180025095e-35 1.5000000000000002 27.500000000000004 22.500000000000004 1.5000000000000002 1.0000000180025095e-35 18.500000000000004 22.500000000000004 18.500000000000004 1.0000000180025095e-35
decision_type=2 2 2 2 2 2 2 2 2 2 2 2 2 2 2 2 2 2 2 2 2 2 2 2 2 2 2 2 2 2
left_child=1 2 3 8 5 -5 9 23 -1 -6 20 -4 13 14 22 -15 -3 21 -12 -8 28 -18 -13 24 -7 26 -26 -9 -11 -30
right_child=-2 16 11 4 6 7 19 27 -10 10 18 12 -14 15 -16 -17 17 -19 -20 -21 -22 -23 -24 -25 25 -27 -28 -29 29 -31
leaf_value=-0.024969735279615938 0.029406557381545784 -0.02456873466061742 -0.024986645617475899 -0.024711062623893401 -0.024801468672034744 -0.024924546040665314 -0.024871565856201937 -0.025176174975205814 -0.024767215873905752 -0.024600439753231208 -0.025160113978382678 -0.025083402473754769 -0.024878162148129195 -0.024866871921799372 -0.024909532295999518 -0.024972814626882767 -0.02468818770160558 -0.024583238786077367 -0.024752719576645609 -0.02479070979137888 -0.024635116781081028 -0.024569957618154309 -0.024997359687541389 -0.024909564855257693 -0.024504132509582437 -0.024961788285772512 -0.024817217921943302 -0.024994802115242212 -0.024782826311934923 -0.024388468507477806
leaf_weight=1044.3127089440823 20208.766049802303 9041.4458948075771 957.80616089701653 202.75276076793671 519.14044061303139 204.64461725950241 564.91222354769707 78.023740261793137 83.108387380838394 71.386796236038208 12.518951952457426 436.54931357502937 735.42822441458702 1421.2378670275211 1120.1746552884579 1245.3874979913235 480.66603744029999 1685.0139243304729 764.52639299631119 646.62255927920341 475.80952313542366 189.28035640716553 539.00783759355545 844.19975516200066 68.849219620227814 59.943551272153854 153.49874091148376 129.10419511795044 267.11315992474556 10.417646765708922
leaf_count=2177 40434 19012 1996 425 1086 427 1180 162 174 150 26 908 1536 2969 2338 2596 1008 3542 1601 1353 999 398 1123 1762 145 125 321 269 559 22
internal_value=0 -0.824683 -0.829622 -0.827865 -0.826985 -0.82947 -0.825686 -0.83023 -0.831827 -0.824585 -0.823894 -0.83131 -0.831035 -0.831308 -0.832278 -0.830545 -0.819198 -0.82012 -0.825309 -0.827614 -0.822561 -0.821826 -0.834529 -0.82942 -0.827862 -0.825719 -0.824009 -0.835437 -0.824458 -0.825601
internal_weight=0 24052.9 12656.5 6200.89 5073.46 1741.02 3332.45 1538.26 1127.42 2120.91 1601.77 6455.59 5497.79 4762.36 2095.73 2666.63 11396.4 2354.96 777.045 1211.53 824.727 669.946 975.557 1331.14 486.936 282.292 222.348 207.128 348.918 277.531
internal_count=90823 50389 26429 12963 10612 3636 6976 3211 2351 4443 3357 13466 11470 9934 4369 5565 23960 4948 1627 2533 1730 1406 2031 2780 1018 591 466 431 731 581
shrinkage=0.03


Tree=27
num_leaves=31
num_cat=0
split_feature=10 8 8 10 8 7 8 7 2 7 7 7 11 11 7 1 11 1 8 5 5 3 8 11 8 7 7 7 4 7
split_gain=3202.19 1032.74 270.626 241.872 498.76 281.929 214.281 91.7818 67.3321 50.1771 47.2457 43.0363 37.6667 34.9825 34.6017 20.7532 20.5945 21.4835 18.3921 18.1792 16.0171 15.4584 15.3331 16.2169 14.8177 12.4489 13.6214 11.3035 10.3013 9.28676
threshold=1.0000000180025095e-35 0.75000000000000011 1.0000000180025095e-35 1.5000000000000002 0.75000000000000011 28.500000000000004 1.0000000180025095e-35 27.500000000000004 1.0000000180025095e-35 59.000000000000007 1.5000000000000002 26.500000000000004 1.0000000180025095e-35 1.0000000180025095e-35 29.500000000000004 1.5000000000000002 1.0000000180025095e-35 1.5000000000000002 1.0000000180025095e-35 -1.0000000180025095e-35 -1.0000000180025095e-35 1.0000000180025095e-35 1.5000000000000002 1.0000000180025095e-35 1.0000000180025095e-35 28.500000000000004 91.500000000000014 23.500000000000004 1.0000000180025095e-35 26.500000000000004
decision_type=2 2 2 2 2 2 2 2 2 2 2 2 2 2 2 2 2 2 2 2 2 2 2 2 2 2 2 2 2 2
left_child=1 2 12 4 5 6 -2 8 16 14 -8 -12 19 15 18 -9 17 -4 -7 -1 -10 -19 23 -3 -16 -17 -27 -25 -26 -23
right_child=3 22 7 -5 -6 9 10 13 20 -11 11 -13 -14 -15 24 25 -18 21 -20 -21 -22 29 -24 27 28 26 -28 -29 -30 -31
leaf_value=0.092629280486781693 0.059709878853102888 -0.0056434116514695078 0.014197166749363759 -0.015654716508252994 -0.015332029234645231 0.056963351341896361 0.010811969654532828 0.039320631557763712 0.056657906586544141 -0.014158478533777554 -0.010227087830383678 0.004144210458352263 0.090730007822797318 0.066451345586385768 0.075788749486076709 0.041586266192560999 0.041221766342271232 0.018318140713627248 0.02361279220336018 0.064006012772368739 0.038769487846097503 0.032506644799225826 -0.014652007066722584 -0.0036462455787342478 0.032353886779907783 0.059512340393906037 0.013707587948086856 0.03826196435602084 0.049745557932042481 0.055264682862058254
leaf_weight=21.986541077494621 54.186479657888412 172.99114816635847 161.80866338312626 3240.6396233439445 1600.4049986377358 16.412664651870728 219.91310442984104 199.08567913621664 85.388100527226925 19.270345225930214 504.27582386136055 298.57308504730463 77.161499425768852 95.162374772131443 14.030928730964659 62.038401387631893 57.649273976683617 57.984594084322453 159.59853309392929 217.73759420216084 95.356738150119781 61.333502143621445 175.08795586228371 9.945794530212881 48.429851561784744 140.86556193977594 6.0959388464689246 13.870587036013601 83.496562920510769 21.899560332298279
leaf_count=131 413 2026 1616 40434 19566 124 2315 1734 688 224 5917 3293 449 728 106 550 487 585 1554 1609 835 566 2110 115 427 1115 62 143 709 192
internal_value=0 1.20377 1.60716 -0.332101 -0.128423 0.303386 0.0524085 1.36162 1.07585 1.09547 -0.0502636 -0.162751 2.41664 1.66906 1.18928 1.54175 0.82621 0.721985 0.890755 2.22104 1.57401 1.007 -0.273123 -0.0816041 1.54928 1.76184 1.92041 0.692032 1.44537 1.28315
internal_weight=0 1733.45 1361.55 6259.23 3018.59 1418.19 1076.95 1044.67 541.42 341.239 1022.76 802.849 316.886 503.248 321.969 408.086 360.676 303.026 176.011 239.724 180.745 141.218 371.895 196.808 145.957 209 146.962 23.8164 131.926 83.2331
internal_count=90823 15741 11347 75082 34648 15082 11938 9158 4969 3144 11525 9210 2189 4189 2920 3461 3446 2959 1678 1740 1523 1343 4394 2284 1242 1727 1177 258 1136 758
shrinkage=0.03


Tree=28
num_leaves=31
num_cat=0
split_feature=10 8 7 7 10 7 7 10 8 7 11 7 7 10 7 9 8 8 10 7 7 2 3 6 9 2 7 11 10 5
split_gain=6208.64 9902.16 314.876 208.313 127.914 63.2731 34.8583 32.9662 25.2889 27.931 22.1373 20.6386 20.4518 18.5018 10.9374 10.0874 19.0548 9.92081 12.5564 8.85606 7.9602 7.19997 6.36222 7.51395 5.74137 5.15541 5.15277 5.07607 5.05772 5.02298
threshold=1.5000000000000002 0.75000000000000011 24.500000000000004 1.5000000000000002 1.0000000180025095e-35 22.500000000000004 16.500000000000004 1.0000000180025095e-35 1.0000000180025095e-35 26.500000000000004 1.0000000180025095e-35 23.500000000000004 18.500000000000004 1.0000000180025095e-35 22.500000000000004 1.0000000180025095e-35 1.0000000180025095e-35 1.5000000000000002 1.0000000180025095e-35 25.500000000000004 29.500000000000004 1.0000000180025095e-35 1.0000000180025095e-35 1.0000000180025095e-35 1.0000000180025095e-35 1.0000000180025095e-35 19.500000000000004 1.0000000180025095e-35 1.0000000180025095e-35 1.0000000180025095e-35
decision_type=2 2 2 2 2 2 2 2 2 2 2 2 2 2 2 2 2 2 2 2 2 2 2 2 2 2 2 2 2 2
left_child=1 2 3 7 6 12 -5 15 10 13 -4 -3 -6 -10 21 -1 -17 18 -13 -15 29 26 23 -14 -21 -7 -8 -18 -22 -11
right_child=-2 11 8 4 5 25 14 -9 9 20 -12 17 22 19 -16 16 27 -19 -20 24 28 -23 -24 -25 -26 -27 -28 -29 -30 -31
leaf_value=0.03198015836895348 -0.017715879768511668 -0.017114662400165428 0.033922194087012469 0.0022208358206764894 -0.008805604494533081 0.017104790999626189 0.01123065666197867 0.036943955302070342 0.038487404237810108 0.039768485054784017 0.020074860255582867 -0.0060277229963926577 0.00034744981216827789 0.027721989759834649 0.036033128549871979 0.0075646492870935665 0.024647905300470962 -0.017354674333636185 -0.013518810460088458 0.032735972572921317 0.034099817222380646 0.036180619605050937 0.0096151271440501253 0.025352453167436815 0.043748791446561852 0.025398934832541176 0.02583483438999945 0.035415253394998035 0.038551548490046085 0.033673979799082279
leaf_weight=210.67599067091942 10496.705506503582 5026.8789549171925 624.77109214663506 38.260207772254944 98.57001319527626 434.89621588587761 27.202454119920731 835.27649402618408 466.25074437260628 2895.8511627614498 124.63187751173973 280.47046971321106 160.52021825313568 389.38707321882248 259.96214118599892 55.558077841997147 160.03950881958008 338.14572685956955 714.13462841510773 397.98585399985313 459.7953314781189 50.442650467157364 236.30205553770065 11.597163647413252 47.712770849466324 79.827270925045013 108.34950628876686 52.276731669902802 458.9600333571434 127.05015912652016
leaf_count=634 40434 19012 1856 133 360 1403 88 2458 1359 8394 394 1008 559 1191 768 186 493 1276 2664 1202 1356 149 797 37 141 257 339 155 1349 371
internal_value=0 0.409824 1.09614 0.820572 0.566697 0.366059 0.990049 1.11157 1.2258 1.25036 1.05398 -0.541156 0.115314 1.12334 1.06864 0.902292 0.773536 -0.43052 -0.380213 1.03424 1.2923 0.883491 0.213985 0.0677424 1.1305 0.613037 0.763469 0.909968 1.21079 1.31708
internal_weight=0 15171.8 8812.15 2819.76 1505.93 1021.71 484.217 1313.83 5992.4 5242.99 749.403 6359.63 506.989 1301.34 445.957 478.55 267.874 1332.75 994.605 835.086 3941.66 185.995 408.419 172.117 445.699 514.723 135.552 212.316 918.755 3022.9
internal_count=90823 50389 26429 8816 4890 3413 1477 3926 17613 15363 2250 23960 1753 3893 1344 1468 834 4948 3672 2534 11470 576 1393 596 1343 1660 427 648 2705 8765
shrinkage=0.03


Tree=29
num_leaves=31
num_cat=0
split_feature=8 10 7 10 7 7 10 7 7 2 7 7 10 7 8 7 7 7 8 10 8 7 11 11 8 8 6 7 2 7
split_gain=22724.3 2151.63 794.961 344.314 283.393 177.712 96.7789 50.852 43.6486 36.9531 38.7237 44.9261 31.1927 24.9788 19.6974 15.9624 14.2466 13.9362 13.5716 12.6319 12.5732 11.7603 10.5812 10.4189 10.2106 9.261 8.78535 8.61389 8.11012 7.11255
threshold=0.75000000000000011 1.5000000000000002 26.500000000000004 1.0000000180025095e-35 1.5000000000000002 24.500000000000004 1.0000000180025095e-35 28.500000000000004 22.500000000000004 1.0000000180025095e-35 22.500000000000004 1.5000000000000002 1.5000000000000002 18.500000000000004 1.0000000180025095e-35 95.500000000000014 27.500000000000004 23.500000000000004 1.0000000180025095e-35 1.0000000180025095e-35 1.0000000180025095e-35 18.500000000000004 1.0000000180025095e-35 1.0000000180025095e-35 1.5000000000000002 1.0000000180025095e-35 1.0000000180025095e-35 91.500000000000014 1.0000000180025095e-35 24.500000000000004
decision_type=2 2 2 2 2 2 2 2 2 2 2 2 2 2 2 2 2 2 2 2 2 2 2 2 2 2 2 2 2 2
left_child=1 2 3 9 26 8 20 14 21 10 11 22 17 -13 -8 -9 -16 -2 -7 24 -4 -6 -1 -11 -19 -10 -5 -22 -20 -12
right_child=12 -3 6 4 5 18 7 15 25 23 29 13 -14 -15 16 -17 -18 19 28 -21 27 -23 -24 -25 -26 -27 -28 -29 -30 -31
leaf_value=-0.0035421446203605981 0.035984330690203896 -0.021270120158628829 -0.019743480994838244 -0.001308064097755746 0.031779576217616498 -0.01636615443284048 -0.019534870825771006 -0.01343769214383508 -0.011848214280327601 -0.010578122967839224 -0.0039196548314456925 0.026019193004197562 -0.021270120158628829 0.0054009490541710153 -0.00093706164352248009 0.00065304435775477077 -0.0068495948733236344 0.0275989928320448 0.0063516423564825798 0.034781529524982591 -0.015412595311742007 0.022992614940831223 -0.019870028764925003 -0.019642125022284091 0.035771512944793998 0.015322095365741004 -0.0067520022815988935 -0.0046616499886188278 -0.00034137324662663991 -0.0099652952664298876
leaf_weight=204.77491134405136 9203.8376005589962 16802.671758949757 676.32671934366226 460.63996902108192 173.06492292881012 26.837588995695114 76.739555567502975 1297.494516313076 11.460367918014525 550.66094416379929 260.18722227215767 75.647702991962433 8.7312524914741498 175.7237064242363 721.31704235076904 76.628823727369308 746.2269452214241 481.6584324836731 958.58939754962921 1711.5835447311401 2218.6945556402206 659.34665697813034 43.268277585506439 143.9797797203064 192.60864400863647 761.50575777888298 633.98557138442993 69.163987725973129 196.30748414993286 535.80174648761749
leaf_count=459 19012 40413 1577 1029 360 62 178 2974 26 1251 586 160 21 386 1607 170 1686 1008 2098 3542 5118 1393 100 333 398 1634 1429 156 436 1221
internal_value=0 -0.479422 -0.151239 0.10906 0.282445 0.451776 -0.41106 -0.281794 0.668422 -0.229141 -0.129354 0.088923 1.1804 0.38686 -0.157276 -0.42173 -0.13145 1.18182 0.157463 1.11371 -0.53833 0.827316 -0.213012 -0.415228 0.997784 0.497309 -0.148703 -0.502919 0.173799 -0.266305
internal_weight=0 28557 11754.4 5871.78 3881.74 2787.11 5882.59 2918.41 1605.38 1990.04 1295.4 499.415 11598.4 251.371 1544.28 1374.12 1467.54 11589.7 1181.73 2385.85 2964.19 832.412 248.043 694.641 674.267 772.966 1094.63 2287.86 1154.9 795.989
internal_count=90823 66842 26429 12963 8467 6009 13466 6615 3413 4496 2912 1105 23981 546 3471 3144 3293 23960 2596 4948 6851 1753 559 1584 1406 1660 2458 5274 2534 1807
shrinkage=0.03


Tree=30
num_leaves=1
num_cat=0
split_feature=
split_gain=
threshold=
decision_type=
left_child=
right_child=
leaf_value=0
leaf_weight=
leaf_count=
internal_value=
internal_weight=
internal_count=
shrinkage=1


Tree=31
num_leaves=31
num_cat=0
split_feature=10 8 7 5 10 8 7 11 7 7 7 8 11 10 7 7 7 10 7 8 3 7 8 7 7 7 6 7 7 2
split_gain=34202.6 0.858193 0.0451126 0.0277286 0.0201915 0.0097899 0.00918092 0.0061193 0.00443399 0.00388485 0.00407214 0.00349869 0.00347968 0.00463759 0.0107192 0.00993941 0.00341466 0.00357016 0.00315339 0.0028395 0.00271827 0.00269304 0.00268518 0.00238957 0.00233252 0.00218712 0.00214767 0.0021276 0.00393998 0.0039808
threshold=1.5000000000000002 0.75000000000000011 26.500000000000004 -1.0000000180025095e-35 1.0000000180025095e-35 1.0000000180025095e-35 24.500000000000004 1.0000000180025095e-35 14.500000000000002 1.5000000000000002 22.500000000000004 1.0000000180025095e-35 1.0000000180025095e-35 1.0000000180025095e-35 28.500000000000004 28.500000000000004 23.500000000000004 1.0000000180025095e-35 25.500000000000004 1.0000000180025095e-35 1.0000000180025095e-35 27.500000000000004 1.5000000000000002 27.500000000000004 18.500000000000004 22.500000000000004 1.0000000180025095e-35 22.500000000000004 1.5000000000000002 1.0000000180025095e-35
decision_type=2 2 2 2 2 2 2 2 2 2 2 2 2 2 2 2 2 2 2 2 2 2 2 2 2 2 2 2 2 2
left_child=1 2 3 8 5 -5 9 27 -1 -6 20 -4 13 15 21 23 -3 22 -8 -12 24 -15 -18 -13 -11 -9 -26 28 -7 -30
right_child=-2 16 11 4 6 7 18 25 -10 10 19 12 -14 14 -16 -17 17 -19 -20 -21 -22 -23 -24 -25 26 -27 -28 -29 29 -31
leaf_value=-0.024622702750028803 0.028716513153215051 -0.024159888634859825 -0.024637654700989602 -0.024327024165068725 -0.024431105375356105 -0.024576529475225772 -0.024515424837895195 -0.024827858689346026 -0.024394047397974593 -0.024199784107422684 -0.024835361812096376 -0.024740830612130508 -0.024514308444107118 -0.024459643837580546 -0.024622840310174379 -0.024557008595198132 -0.024297355962586795 -0.024177235121064067 -0.0244180064100139 -0.024378373913145242 -0.024242745978068168 -0.024542584102172905 -0.024163299902957958 -0.024646061314495371 -0.024409515352506173 -0.024625939177988339 -0.023968041720149262 -0.02455500296379174 -0.024344167058153923 -0.024620695977053651
leaf_weight=1036.5672107338905 20176.613516628742 8950.5399208664894 950.70058479905128 200.92659729719162 514.78127309679985 203.09962731599808 560.46556723117828 77.483071208000183 82.393277019262314 70.691496133804321 12.437804162502287 433.47277924418449 729.51646083593369 693.01821753382683 1236.0796836316586 1111.5597112178802 476.23240604996681 1668.2754053175449 641.13568288087845 757.93249416351318 471.32672110199928 716.71749022603035 187.38884288072586 534.99847957491875 264.83863466978073 128.09177803993225 10.30330318212509 837.66790753602982 220.38970249891281 59.501727998256683
leaf_count=2177 40434 19012 1996 425 1086 427 1180 162 174 150 26 908 1536 1461 2596 2338 1008 3542 1353 1601 999 1508 398 1123 559 269 22 1762 466 125
internal_value=0 -0.81194 -0.817628 -0.815693 -0.814692 -0.817462 -0.813243 -0.818326 -0.820196 -0.811983 -0.811209 -0.819485 -0.819176 -0.81949 -0.818612 -0.820607 -0.80561 -0.806688 -0.815448 -0.812858 -0.809654 -0.816727 -0.80865 -0.822949 -0.811783 -0.823401 -0.813099 -0.817536 -0.815865 -0.813432
internal_weight=0 23838.5 12556.1 6150.03 5031.07 1727.16 3303.91 1526.23 1118.96 2102.31 1587.53 6406.06 5455.36 4725.85 2645.82 2080.03 11282.4 2331.9 1201.6 770.37 817.16 1409.74 663.621 968.471 345.833 205.575 275.142 1320.66 482.991 279.891
internal_count=90823 50389 26429 12963 10612 3636 6976 3211 2351 4443 3357 13466 11470 9934 5565 4369 23960 4948 2533 1627 1730 2969 1406 2031 731 431 581 2780 1018 591
shrinkage=0.03


Tree=32
num_leaves=31
num_cat=0
split_feature=10 8 10 8 7 8 8 7 2 7 7 7 7 11 11 11 3 1 8 1 8 11 6 5 8 7 7 7 5 4
split_gain=3011.44 923.765 240.222 485.655 260.509 225.14 195.608 79.1172 58.6398 46.0212 45.3704 42.0006 30.2835 29.687 29.3662 18.3352 19.9251 17.7557 16.0859 15.3909 15.2392 15.5657 14.7223 13.4318 12.3156 10.5086 11.6652 10.4049 9.0828 8.90142
threshold=1.0000000180025095e-35 0.75000000000000011 1.5000000000000002 0.75000000000000011 28.500000000000004 1.0000000180025095e-35 1.0000000180025095e-35 27.500000000000004 1.0000000180025095e-35 59.000000000000007 1.5000000000000002 26.500000000000004 29.500000000000004 1.0000000180025095e-35 1.0000000180025095e-35 1.0000000180025095e-35 1.0000000180025095e-35 1.5000000000000002 1.0000000180025095e-35 1.5000000000000002 1.5000000000000002 1.0000000180025095e-35 1.0000000180025095e-35 -1.0000000180025095e-35 1.0000000180025095e-35 28.500000000000004 91.500000000000014 23.500000000000004 -1.0000000180025095e-35 1.0000000180025095e-35
decision_type=2 2 2 2 2 2 2 2 2 2 2 2 2 2 2 2 2 2 2 2 2 2 2 2 2 2 2 2 2 2
left_child=1 5 3 4 6 13 -2 8 15 12 28 -12 18 22 17 16 -7 -9 -6 -18 21 -3 -1 -10 -14 -19 -27 -23 -8 -26
right_child=2 20 -4 -5 9 7 10 14 23 -11 11 -13 24 -15 -16 -17 19 25 -20 -21 -22 27 -24 -25 29 26 -28 -29 -30 -31
leaf_value=0.058443559972732692 0.055415431231777154 -0.0055681652658134632 -0.015640318766104888 -0.015314137128042955 0.052964475499643199 0.012028002848217326 0.015810152127988388 0.037101546403980043 0.052601201057615204 -0.0141334960842695 -0.01017123607358067 0.0040238614281562337 0.069377375601458194 0.081999521024592043 0.061369781295851883 0.038887118910137644 0.018717349000652399 0.03917924659890773 0.022580859908999506 0.036431614060068 -0.014623322166955518 -0.0035675606592195392 0.078811757613372835 0.036610790503753453 0.030718885472528386 0.055245122991197881 0.013227358787236363 0.036432168806359085 0.0035978485864851368 0.046573019955656499
leaf_weight=218.05420272052288 57.375233069062233 171.79657772928476 3175.2135805338621 1573.7410349696875 17.342982083559036 133.48111341893673 125.2574497461319 207.22801321744919 90.337542951107025 19.065380543470383 499.79746875166893 300.3159893155098 15.065058603882788 83.848410293459892 101.28741933405399 60.046869829297066 90.208173930644989 64.69165650755167 163.77469693124294 86.443502590060234 172.27950765192509 9.8852304369211215 37.419293224811554 99.186977311968803 50.085669927299023 149.13522605597973 6.1935879588127127 14.347860336303709 97.456647373735905 87.648858614265919
leaf_count=1523 413 2026 40434 19566 124 1329 1296 1734 688 224 5917 3293 106 449 728 487 872 550 1554 758 2110 115 217 835 427 1115 62 143 1019 709
internal_value=0 1.14153 -0.329516 -0.126952 0.29418 1.50583 0.0504633 1.28407 1.02206 1.04 -0.0503231 -0.161441 1.12628 2.21702 1.56154 0.790454 0.692525 1.44677 0.849675 0.912857 -0.270464 -0.0797727 2.04756 1.47442 1.45415 1.64462 1.78566 0.670512 0.348874 1.36026
internal_weight=0 1795.87 6182.14 3006.93 1433.19 1427.56 1080.2 1088.24 559.704 352.983 1022.83 800.113 333.917 339.322 528.536 370.18 310.133 427.248 181.118 176.652 368.309 196.03 255.473 189.525 152.8 220.02 155.329 24.2331 222.714 137.735
internal_count=90823 15741 75082 34648 15082 11347 11938 9158 4969 3144 11525 9210 2920 2189 4189 3446 2959 3461 1678 1630 4394 2284 1740 1523 1242 1727 1177 258 2315 1136
shrinkage=0.03


Tree=33
num_leaves=31
num_cat=0
split_feature=10 8 7 7 10 7 7 10 8 7 7 11 7 10 8 10 7 9 8 7 7 2 3 6 9 5 7 9 3 11
split_gain=5980.1 9291.97 280.538 187.598 117.282 59.1257 31.7744 29.88 22.7451 24.5707 20.7072 19.9606 19.6436 16.2882 9.92372 12.3927 9.78563 9.2291 17.4585 8.1258 7.11159 6.43618 6.09848 7.16234 5.18868 4.92625 4.80488 4.86199 4.76521 4.74205
threshold=1.5000000000000002 0.75000000000000011 24.500000000000004 1.5000000000000002 1.0000000180025095e-35 22.500000000000004 16.500000000000004 1.0000000180025095e-35 1.0000000180025095e-35 26.500000000000004 23.500000000000004 1.0000000180025095e-35 18.500000000000004 1.0000000180025095e-35 1.5000000000000002 1.0000000180025095e-35 22.500000000000004 1.0000000180025095e-35 1.0000000180025095e-35 25.500000000000004 29.500000000000004 1.0000000180025095e-35 1.0000000180025095e-35 1.0000000180025095e-35 1.0000000180025095e-35 -1.0000000180025095e-35 91.500000000000014 1.0000000180025095e-35 1.0000000180025095e-35 1.0000000180025095e-35
decision_type=2 2 2 2 2 2 2 2 2 2 2 2 2 2 2 2 2 2 2 2 2 2 2 2 2 2 2 2 2 2
left_child=1 2 3 7 6 12 -5 17 11 13 -3 26 -6 -10 15 28 21 29 -19 -15 -11 -8 23 -14 -21 -7 27 -4 -12 -1
right_child=-2 10 8 4 5 25 16 -9 9 20 14 -13 22 19 -16 -17 -18 18 -20 24 -22 -23 -24 -25 -26 -27 -28 -29 -30 -31
leaf_value=0.028399364424616876 -0.017642072473640719 -0.017040454399473819 0.031230446709023502 0.0021944959530504071 -0.0086923647989327786 0.038045627781452977 0.022048802127643631 0.035173909674981838 0.036579814861743901 0.037540636905723568 -0.0098457357780912802 0.019296182848960688 0.00032164678695199817 0.026542422248618362 -0.017284927077385666 -0.013410633891351281 0.034342760344380739 0.0072946750677632876 0.026074407799162872 0.031294548802042896 0.034569428808740192 0.034443994132340089 0.0093858635925902229 0.024550765491043285 0.041607185512850663 0.017348664171246416 0.053542603170726531 0.04095794572601922 -0.0020043411844552221 0.039832088169822977
leaf_weight=176.00335305929184 10297.068666279316 4947.7801537811756 582.0483121573925 38.298714697360992 97.746419042348862 10.563777297735212 138.00905209779739 859.0869802236557 480.18927374482155 3114.6647073626518 140.06997960805893 126.82540103793144 160.69781044125557 398.16385722160339 332.90471976995468 705.08161309361458 267.15016436576843 56.04168912768364 217.31638702750206 407.97284770011902 944.97175881266594 51.872861683368683 237.94584289193153 11.785837113857268 49.205554097890854 511.75818899273872 9.4604527056217176 50.235065877437592 138.93087592720985 40.089303314685822
leaf_count=518 40434 19012 1685 133 360 33 427 2458 1359 8765 506 394 559 1191 1276 2664 768 186 648 1202 2705 149 797 37 141 1627 27 144 502 116
internal_value=0 0.397599 1.04635 0.788361 0.54819 0.355975 0.948078 1.06011 1.16667 1.18959 -0.538354 1.00572 0.113131 1.07194 -0.426918 -0.37643 1.0214 0.862901 0.740811 0.989189 1.2283 0.847833 0.209079 0.0659076 1.08015 0.592242 1.07736 1.06678 -0.198035 1.01735
internal_weight=0 15302.9 9038.1 2874.37 1525.83 1030.5 495.331 1348.54 6163.74 5395.17 6264.77 768.569 508.176 1335.53 1316.99 984.082 457.032 489.451 273.358 855.342 4059.64 189.882 410.429 172.484 457.178 522.322 641.744 632.283 279.001 216.093
internal_count=90823 50389 26429 8816 4890 3413 1477 3926 17613 15363 23960 2250 1753 3893 4948 3672 1344 1468 834 2534 11470 576 1393 596 1343 1660 1856 1829 1008 634
shrinkage=0.03


Tree=34
num_leaves=31
num_cat=0
split_feature=8 10 7 10 7 7 10 7 7 11 10 2 7 7 8 7 7 7 7 8 8 10 7 8 8 8 6 7 7 7
split_gain=21553.7 2084.25 765.717 328.957 269.091 167.602 94.585 49.5192 41.0006 36.0599 29.1842 26.6141 44.6131 32.9828 19.2256 17.7 15.5101 13.8537 13.141 13.0502 12.4203 11.9016 11.1054 9.61426 8.83956 8.63347 8.51318 8.41915 7.82095 6.59948
threshold=0.75000000000000011 1.5000000000000002 26.500000000000004 1.0000000180025095e-35 1.5000000000000002 24.500000000000004 1.0000000180025095e-35 28.500000000000004 22.500000000000004 1.0000000180025095e-35 1.5000000000000002 1.0000000180025095e-35 22.500000000000004 1.5000000000000002 1.0000000180025095e-35 19.500000000000004 95.500000000000014 27.500000000000004 23.500000000000004 1.0000000180025095e-35 1.0000000180025095e-35 1.0000000180025095e-35 17.500000000000004 1.5000000000000002 1.0000000180025095e-35 1.0000000180025095e-35 1.0000000180025095e-35 91.500000000000014 25.500000000000004 27.500000000000004
decision_type=2 2 2 2 2 2 2 2 2 2 2 2 2 2 2 2 2 2 2 2 2 2 2 2 2 2 2 2 2 2
left_child=1 2 3 9 25 8 20 14 22 11 18 12 13 -1 -8 -15 -9 -16 -2 -7 -4 23 -6 -20 -10 -5 -27 29 -21 -22
right_child=10 -3 6 4 5 19 7 16 24 -11 -12 -13 -14 15 17 -17 -18 -19 21 28 27 -23 -24 -25 -26 26 -28 -29 -30 -31
leaf_value=-0.0035177655410756669 0.034780610869669867 -0.021036462017539191 -0.019567769921852555 -0.015276688805135618 0.032324268758874591 -0.016197105599154871 -0.019367098863974714 -0.01328701644900915 -0.011747947776078023 -0.016102359281279614 -0.021036462017539191 -0.010456811563660112 -0.0071104176578605403 0.023199177271519152 -0.00093991230361022116 0.0060987210933682867 0.00059718924001732018 -0.0067732050141533096 0.026677754444554509 0.0076493244340494794 -0.012087152773613091 0.033617374451770522 0.02257523178736234 0.034570910564357314 0.014837270819503912 -0.00056337684555120792 -0.0060851401378563125 -0.0046071207242691292 0.0027111414004450853 -0.016097664492611893
leaf_weight=204.65391156077385 9291.6795558929443 16537.86607709527 670.28685787320137 62.153178155422211 123.25588366389275 26.650700479745865 76.112235844135284 1290.5945819318295 11.423982709646223 315.42609930038452 8.5936502516269666 548.60481804609299 691.5069634616375 92.458520710468292 721.36138188838959 132.60452330112457 76.717238515615463 744.69971561431885 486.01663601398468 545.43460369110107 469.13758844137192 1727.9055954515934 716.29257571697235 194.45304435491562 766.51146695017815 433.58062940835953 597.7075674533844 69.069181978702545 613.10802492499352 1734.8428838551044
leaf_count=459 19012 40413 1577 143 254 62 178 2974 26 731 21 1251 1571 195 1607 289 170 1686 1008 1191 1085 3542 1499 398 1634 967 1348 156 1343 4033
internal_value=0 -0.472507 -0.15017 0.10466 0.273479 0.437631 -0.406243 -0.278382 0.646959 -0.226653 1.14094 -0.168077 -0.0797684 0.173273 -0.15554 0.43746 -0.416933 -0.1301 1.14229 0.151952 -0.532635 1.07646 0.800217 0.964444 0.481562 -0.147269 -0.125455 -0.497359 0.167867 -0.508133
internal_weight=0 28272.1 11734.2 5881.37 3896.12 2802.68 5852.82 2909.49 1617.48 1985.25 11708.6 1669.83 1121.22 429.717 1542.17 225.063 1367.31 1466.06 11700.1 1185.19 2943.34 2408.38 839.548 680.47 777.935 1093.44 1031.29 2273.05 1158.54 2203.98
internal_count=90823 66842 26429 12963 8467 6009 13466 6615 3413 4496 23981 3765 2514 943 3471 484 3144 3293 23960 2596 6851 4948 1753 1406 1660 2458 2315 5274 2534 5118
shrinkage=0.03


Tree=35
num_leaves=1
num_cat=0
split_feature=
split_gain=
threshold=
decision_type=
left_child=
right_child=
leaf_value=0
leaf_weight=
leaf_count=
internal_value=
internal_weight=
internal_count=
shrinkage=1


Tree=36
num_leaves=31
num_cat=0
split_feature=10 8 7 5 10 8 7 11 7 7 7 7 10 8 11 10 7 7 7 8 8 3 1 7 10 6 7 7 10 7
split_gain=32724.3 1.06932 0.0518216 0.0313266 0.0233605 0.0121627 0.0110805 0.00769742 0.00599118 0.00504098 0.00525779 0.004398 0.00447559 0.00407813 0.00442189 0.00510381 0.0140433 0.00992328 0.00370408 0.00342016 0.00330713 0.00317758 0.00302365 0.00270913 0.00261325 0.00252221 0.00249851 0.00240579 0.00224922 0.00220168
threshold=1.5000000000000002 0.75000000000000011 26.500000000000004 -1.0000000180025095e-35 1.0000000180025095e-35 1.0000000180025095e-35 24.500000000000004 1.0000000180025095e-35 14.500000000000002 1.5000000000000002 22.500000000000004 23.500000000000004 1.0000000180025095e-35 1.0000000180025095e-35 1.0000000180025095e-35 1.0000000180025095e-35 27.500000000000004 28.500000000000004 28.500000000000004 1.0000000180025095e-35 1.5000000000000002 1.0000000180025095e-35 1.5000000000000002 18.500000000000004 1.0000000180025095e-35 1.0000000180025095e-35 25.500000000000004 22.500000000000004 1.0000000180025095e-35 22.500000000000004
decision_type=2 2 2 2 2 2 2 2 2 2 2 2 2 2 2 2 2 2 2 2 2 2 2 2 2 2 2 2 2 2
left_child=1 2 3 8 5 -5 9 29 24 -6 21 -3 20 -4 15 17 -17 -15 -18 -12 -13 23 -19 -11 -1 -25 -8 -9 -16 -7
right_child=-2 11 13 4 6 7 26 27 -10 10 19 12 -14 14 28 16 18 22 -20 -21 -22 -23 -24 25 -26 -27 -28 -29 -30 -31
